{"learner":{"attributes":{"best_iteration":"102","best_score":"0.01155715937075616","scikit_learn":"{\"_estimator_type\": \"regressor\"}"},"feature_names":["Global_reactive_power","Voltage","Global_intensity","Sub_metering_1","Sub_metering_2","Sub_metering_3","dayofweek","day","month","quarter","year","dayofyear","weekofyear","is_weekend","is_month_start","is_month_end","dayofweek_sin","dayofweek_cos","month_sin","month_cos","dayofyear_sin","dayofyear_cos","Global_active_power_lag_1","Global_active_power_lag_2","Global_active_power_lag_3","Global_active_power_lag_7","Global_active_power_lag_14","Global_active_power_lag_30","Global_active_power_rolling_mean_7","Global_active_power_rolling_std_7","Global_active_power_rolling_min_7","Global_active_power_rolling_max_7","Global_active_power_rolling_mean_14","Global_active_power_rolling_std_14","Global_active_power_rolling_min_14","Global_active_power_rolling_max_14","Global_active_power_rolling_mean_30","Global_active_power_rolling_std_30","Global_active_power_rolling_min_30","Global_active_power_rolling_max_30","Global_active_power_ewm_7","Global_active_power_ewm_30","Global_active_power_diff_1","Global_active_power_diff_7"],"feature_types":["float","float","float","float","float","float","int","int","int","int","int","int","int","int","int","int","float","float","float","float","float","float","float","float","float","float","float","float","float","float","float","float","float","float","float","float","float","float","float","float","float","float","float","float"],"gradient_booster":{"model":{"gbtree_model_param":{"num_parallel_tree":"1","num_trees":"153"},"iteration_indptr":[0,1,2,3,4,5,6,7,8,9,10,11,12,13,14,15,16,17,18,19,20,21,22,23,24,25,26,27,28,29,30,31,32,33,34,35,36,37,38,39,40,41,42,43,44,45,46,47,48,49,50,51,52,53,54,55,56,57,58,59,60,61,62,63,64,65,66,67,68,69,70,71,72,73,74,75,76,77,78,79,80,81,82,83,84,85,86,87,88,89,90,91,92,93,94,95,96,97,98,99,100,101,102,103,104,105,106,107,108,109,110,111,112,113,114,115,116,117,118,119,120,121,122,123,124,125,126,127,128,129,130,131,132,133,134,135,136,137,138,139,140,141,142,143,144,145,146,147,148,149,150,151,152,153],"tree_info":[0,0,0,0,0,0,0,0,0,0,0,0,0,0,0,0,0,0,0,0,0,0,0,0,0,0,0,0,0,0,0,0,0,0,0,0,0,0,0,0,0,0,0,0,0,0,0,0,0,0,0,0,0,0,0,0,0,0,0,0,0,0,0,0,0,0,0,0,0,0,0,0,0,0,0,0,0,0,0,0,0,0,0,0,0,0,0,0,0,0,0,0,0,0,0,0,0,0,0,0,0,0,0,0,0,0,0,0,0,0,0,0,0,0,0,0,0,0,0,0,0,0,0,0,0,0,0,0,0,0,0,0,0,0,0,0,0,0,0,0,0,0,0,0,0,0,0,0,0,0,0,0,0],"trees":[{"base_weights":[-1.2824877E-2,-3.070552E-1,3.0451974E-1,-6.141994E-1,-1.9158177E-1,1.907248E-1,7.4879766E-1,-3.868928E-2,-4.9708027E-1,-2.9099748E-1,-9.0163946E-2,9.516243E-2,3.2041898E-1,6.15646E-1,5.2170094E-2,-2.6891649E-2,-2.1518862E-2,-3.26027E-1,-1.1351456E-2,-1.3972627E-1,-3.968158E-2,5.7403322E-2,1.5543959E-1,1.2630165E-2,1.8959956E-2,2.550391E-2,3.394534E-2,-1.7315272E-2,-1.4250263E-2,-7.864046E-3,-5.1028165E-3,-2.8790266E-3,-8.2030206E-4,1.4043065E-3,4.1083796E-3,6.037734E-3,8.4406175E-3],"categories":[],"categories_nodes":[],"categories_segments":[],"categories_sizes":[],"default_left":[0,0,0,0,0,0,0,0,0,0,0,0,0,0,0,0,0,0,0,0,0,0,0,0,0,0,0,0,0,0,0,0,0,0,0,0,0],"id":0,"left_children":[1,3,5,7,9,11,13,-1,15,17,19,21,23,25,-1,-1,-1,27,-1,29,31,33,35,-1,-1,-1,-1,-1,-1,-1,-1,-1,-1,-1,-1,-1,-1],"loss_changes":[9.645383E1,1.889264E1,2.4983807E1,2.3441925E0,3.916029E0,4.889881E0,3.319561E0,0E0,5.0239563E-3,3.6741638E-1,4.823501E-1,5.1456E-1,5.738964E-1,1.3454437E-1,0E0,0E0,0E0,5.2833557E-3,0E0,4.8754096E-2,3.98829E-2,1.0151297E-1,2.0432472E-2,0E0,0E0,0E0,0E0,0E0,0E0,0E0,0E0,0E0,0E0,0E0,0E0,0E0,0E0],"parents":[2147483647,0,0,1,1,2,2,3,3,4,4,5,5,6,6,8,8,9,9,10,10,11,11,12,12,13,13,17,17,19,19,20,20,21,21,22,22],"right_children":[2,4,6,8,10,12,14,-1,16,18,20,22,24,26,-1,-1,-1,28,-1,30,32,34,36,-1,-1,-1,-1,-1,-1,-1,-1,-1,-1,-1,-1,-1,-1],"split_conditions":[4.5994444E0,2.9727778E0,6.549722E0,2.0072222E0,3.80375E0,5.4254165E0,8.045555E0,-3.868928E-2,2.6183333E0,3.5151389E0,4.2533336E0,5.065417E0,5.9034724E0,7.0045834E0,5.2170094E-2,-2.6891649E-2,-2.1518862E-2,3.34375E0,-1.1351456E-2,4.093954E0,4.4503126E0,4.8344445E0,5.1655555E0,1.2630165E-2,1.8959956E-2,2.550391E-2,3.394534E-2,-1.7315272E-2,-1.4250263E-2,-7.864046E-3,-5.1028165E-3,-2.8790266E-3,-8.2030206E-4,1.4043065E-3,4.1083796E-3,6.037734E-3,8.4406175E-3],"split_indices":[2,2,2,2,2,2,2,0,2,2,2,2,2,2,0,0,0,2,0,2,2,2,2,0,0,0,0,0,0,0,0,0,0,0,0,0,0],"split_type":[0,0,0,0,0,0,0,0,0,0,0,0,0,0,0,0,0,0,0,0,0,0,0,0,0,0,0,0,0,0,0,0,0,0,0,0,0],"sum_hessian":[1.031E3,5.35E2,4.96E2,1.45E2,3.9E2,3.96E2,1E2,5.9E1,8.6E1,1.96E2,1.94E2,2.29E2,1.67E2,7.1E1,2.9E1,4.9E1,3.7E1,1.24E2,7.2E1,9.7E1,9.7E1,1.42E2,8.7E1,8E1,8.7E1,3E1,4.1E1,7.8E1,4.6E1,6.4E1,3.3E1,5.4E1,4.3E1,6.6E1,7.6E1,2.7E1,6E1],"tree_param":{"num_deleted":"0","num_feature":"44","num_nodes":"37","size_leaf_vector":"1"}},{"base_weights":[7.8453944E-4,-2.8089374E-1,3.1715643E-1,-5.457936E-1,-1.5491407E-1,2.0095567E-1,7.4467343E-1,-3.6495086E-2,-4.4903442E-1,-2.4378091E-1,-6.273647E-2,1.038015E-1,3.204907E-1,6.2287885E-1,5.1489063E-2,-2.533306E-2,-1.9133605E-2,-1.4403301E-2,-9.819915E-3,-1.0907159E-1,-2.1486761E-2,6.574104E-2,1.6360469E-1,1.3122666E-2,1.9015176E-2,2.622055E-2,3.467331E-2,-6.3536535E-3,-4.1731293E-3,-2.063817E-3,-1.7836943E-4,2.1025601E-3,4.272294E-3,6.979298E-3,9.181654E-3],"categories":[],"categories_nodes":[],"categories_segments":[],"categories_sizes":[],"default_left":[0,0,0,0,0,0,0,0,0,0,0,0,0,0,0,0,0,0,0,0,0,0,0,0,0,0,0,0,0,0,0,0,0,0,0],"id":1,"left_children":[1,3,5,7,9,11,13,-1,15,17,19,21,23,25,-1,-1,-1,-1,-1,27,29,31,33,-1,-1,-1,-1,-1,-1,-1,-1,-1,-1,-1,-1],"loss_changes":[9.063002E1,1.786959E1,2.3646015E1,2.7540932E0,2.9828072E0,4.3565702E0,2.9004745E0,0E0,2.4972725E-1,3.3371544E-1,3.436035E-1,4.6723318E-1,4.8685074E-1,1.5068436E-1,0E0,0E0,0E0,0E0,0E0,2.8579235E-2,3.4250587E-2,5.7091475E-2,1.3332844E-2,0E0,0E0,0E0,0E0,0E0,0E0,0E0,0E0,0E0,0E0,0E0,0E0],"parents":[2147483647,0,0,1,1,2,2,3,3,4,4,5,5,6,6,8,8,9,9,10,10,11,11,12,12,13,13,19,19,20,20,21,21,22,22],"right_children":[2,4,6,8,10,12,14,-1,16,18,20,22,24,26,-1,-1,-1,-1,-1,28,30,32,34,-1,-1,-1,-1,-1,-1,-1,-1,-1,-1,-1,-1],"split_conditions":[4.688611E0,3.2009723E0,6.712222E0,2.0072222E0,3.948611E0,5.5034723E0,8.283889E0,-3.6495086E-2,2.7259722E0,3.5705554E0,4.3333335E0,5.109028E0,5.978611E0,7.226389E0,5.1489063E-2,-2.533306E-2,-1.9133605E-2,-1.4403301E-2,-9.819915E-3,4.1643057E0,4.5005555E0,4.879028E0,5.323889E0,1.3122666E-2,1.9015176E-2,2.622055E-2,3.467331E-2,-6.3536535E-3,-4.1731293E-3,-2.063817E-3,-1.7836943E-4,2.1025601E-3,4.272294E-3,6.979298E-3,9.181654E-3],"split_indices":[2,2,2,2,2,2,2,0,2,2,2,2,2,2,0,0,0,0,0,2,2,2,2,0,0,0,0,0,0,0,0,0,0,0,0],"split_type":[0,0,0,0,0,0,0,0,0,0,0,0,0,0,0,0,0,0,0,0,0,0,0,0,0,0,0,0,0,0,0,0,0,0,0],"sum_hessian":[1.015E3,5.37E2,4.78E2,1.72E2,3.65E2,3.77E2,1.01E2,5.7E1,1.15E2,1.85E2,1.8E2,2.09E2,1.68E2,7.3E1,2.8E1,5.8E1,5.7E1,9.3E1,9.2E1,8.4E1,9.6E1,1.29E2,8E1,8.8E1,8E1,3.4E1,3.9E1,4.7E1,3.7E1,4.5E1,5.1E1,6E1,6.9E1,4E1,4E1],"tree_param":{"num_deleted":"0","num_feature":"44","num_nodes":"35","size_leaf_vector":"1"}},{"base_weights":[-9.327071E-3,-3.027001E-1,2.6454267E-1,-5.721111E-1,-1.9468804E-1,1.5407407E-1,6.580081E-1,-3.5603683E-2,-2.3221472E-2,-2.7170187E-1,-9.618539E-2,5.952044E-2,2.6423928E-1,5.2742875E-1,9.0872335E-1,-1.576324E-2,-1.1177075E-2,-1.4415056E-1,-6.0340494E-2,1.4892489E-2,9.568225E-2,2.1037677E-1,1.6706184E-2,2.2389667E-2,2.9251296E-2,3.7872758E-2,5.3468805E-2,-7.507796E-3,-5.0236625E-3,-4.040981E-3,-1.9724488E-3,-6.601137E-5,1.6410766E-3,3.8457585E-3,6.440452E-3,9.103122E-3,1.2035636E-2],"categories":[],"categories_nodes":[],"categories_segments":[],"categories_sizes":[],"default_left":[0,0,0,0,0,0,0,0,0,0,0,0,0,0,0,0,0,0,0,0,0,0,0,0,0,0,0,0,0,0,0,0,0,0,0,0,0],"id":2,"left_children":[1,3,5,7,9,11,13,-1,-1,15,17,19,21,23,25,-1,-1,27,29,31,33,35,-1,-1,-1,-1,-1,-1,-1,-1,-1,-1,-1,-1,-1,-1,-1],"loss_changes":[8.171162E1,1.417654E1,2.2761509E1,1.7792931E0,2.6441603E0,4.275878E0,3.2856102E0,0E0,0E0,3.4283257E-1,2.5951362E-1,3.5845858E-1,6.448965E-1,9.5796585E-2,1.1345863E-1,0E0,0E0,2.2250414E-3,3.5745174E-2,2.9401863E-2,6.6560864E-2,5.065918E-2,0E0,0E0,0E0,0E0,0E0,0E0,0E0,0E0,0E0,0E0,0E0,0E0,0E0,0E0,0E0],"parents":[2147483647,0,0,1,1,2,2,3,3,4,4,5,5,6,6,9,9,10,10,11,11,12,12,13,13,14,14,17,17,18,18,19,19,20,20,21,21],"right_children":[2,4,6,8,10,12,14,-1,-1,16,18,20,22,24,26,-1,-1,28,30,32,34,36,-1,-1,-1,-1,-1,-1,-1,-1,-1,-1,-1,-1,-1,-1,-1],"split_conditions":[4.5005555E0,2.8891666E0,6.453472E0,1.8073611E0,3.7954166E0,5.323889E0,7.842222E0,-3.5603683E-2,-2.3221472E-2,3.3976388E0,4.1186113E0,4.8344445E0,5.8570833E0,6.935E0,9.030556E0,-1.576324E-2,-1.1177075E-2,9.406458E-1,4.3333335E0,4.6768055E0,5.0806947E0,5.6059766E0,1.6706184E-2,2.2389667E-2,2.9251296E-2,3.7872758E-2,5.3468805E-2,-7.507796E-3,-5.0236625E-3,-4.040981E-3,-1.9724488E-3,-6.601137E-5,1.6410766E-3,3.8457585E-3,6.440452E-3,9.103122E-3,1.2035636E-2],"split_indices":[2,2,2,2,2,2,2,0,0,2,2,2,2,2,2,0,0,30,2,2,2,2,0,0,0,0,0,0,0,0,0,0,0,0,0,0,0],"split_type":[0,0,0,0,0,0,0,0,0,0,0,0,0,0,0,0,0,0,0,0,0,0,0,0,0,0,0,0,0,0,0,0,0,0,0,0,0],"sum_hessian":[1.015E3,4.9E2,5.25E2,1.39E2,3.51E2,4.11E2,1.14E2,5.8E1,8.1E1,1.96E2,1.55E2,2.22E2,1.89E2,7.7E1,3.7E1,1E2,9.6E1,6.5E1,9E1,1E2,1.22E2,1.09E2,8E1,3.6E1,4.1E1,2.2E1,1.5E1,5.5E1,1E1,4.4E1,4.6E1,5.3E1,4.7E1,8E1,4.2E1,6E1,4.9E1],"tree_param":{"num_deleted":"0","num_feature":"44","num_nodes":"37","size_leaf_vector":"1"}},{"base_weights":[-9.388818E-4,-2.5414574E-1,2.8592724E-1,-5.180337E-1,-1.4754893E-1,1.8429498E-1,6.745314E-1,-3.3163507E-2,-4.2086342E-1,-2.3020402E-1,-5.8528908E-2,9.862504E-2,3.0500382E-1,5.663513E-1,4.824033E-2,-2.2785252E-2,-1.7555274E-2,-2.6787066E-1,-8.954905E-3,-9.824408E-2,-1.861978E-2,5.9383128E-2,1.5047511E-1,2.616501E-1,1.8172124E-2,2.4625106E-2,3.2883234E-2,-1.4467398E-2,-1.19846165E-2,-5.9085633E-3,-3.9555044E-3,-1.9019991E-3,-1.7881861E-5,2.1786669E-3,4.352411E-3,6.3069956E-3,8.611802E-3,1.1566616E-2,1.4245792E-2],"categories":[],"categories_nodes":[],"categories_segments":[],"categories_sizes":[],"default_left":[0,0,0,0,0,0,0,0,0,0,0,0,0,0,0,0,0,0,0,0,0,0,0,0,0,0,0,0,0,0,0,0,0,0,0,0,0,0,0],"id":3,"left_children":[1,3,5,7,9,11,13,-1,15,17,19,21,23,25,-1,-1,-1,27,-1,29,31,33,35,37,-1,-1,-1,-1,-1,-1,-1,-1,-1,-1,-1,-1,-1,-1,-1],"loss_changes":[7.575987E1,1.550737E1,1.9188606E1,1.9647675E0,2.900278E0,3.9926138E0,2.6251793E0,0E0,7.8186035E-2,3.4664726E-1,3.024903E-1,4.5701003E-1,3.1280518E-1,1.8859863E-1,0E0,0E0,0E0,8.4781647E-4,0E0,2.7254999E-2,3.438789E-2,5.394113E-2,3.017044E-2,1.8043518E-3,0E0,0E0,0E0,0E0,0E0,0E0,0E0,0E0,0E0,0E0,0E0,0E0,0E0,0E0,0E0],"parents":[2147483647,0,0,1,1,2,2,3,3,4,4,5,5,6,6,8,8,9,9,10,10,11,11,12,12,13,13,17,17,19,19,20,20,21,21,22,22,23,23],"right_children":[2,4,6,8,10,12,14,-1,16,18,20,22,24,26,-1,-1,-1,28,-1,30,32,34,36,38,-1,-1,-1,-1,-1,-1,-1,-1,-1,-1,-1,-1,-1,-1,-1],"split_conditions":[4.688611E0,3.0386112E0,6.712222E0,2.0072222E0,3.948611E0,5.55E0,8.37E0,-3.3163507E-2,2.7259722E0,3.5705554E0,4.3333335E0,5.109028E0,6.1483335E0,7.4075E0,4.824033E-2,-2.2785252E-2,-1.7555274E-2,3.34375E0,-8.954905E-3,4.1186113E0,4.5005555E0,4.9505553E0,5.323889E0,5.8570833E0,1.8172124E-2,2.4625106E-2,3.2883234E-2,-1.4467398E-2,-1.19846165E-2,-5.9085633E-3,-3.9555044E-3,-1.9019991E-3,-1.7881861E-5,2.1786669E-3,4.352411E-3,6.3069956E-3,8.611802E-3,1.1566616E-2,1.4245792E-2],"split_indices":[2,2,2,2,2,2,2,0,2,2,2,2,2,2,0,0,0,2,0,2,2,2,2,2,0,0,0,0,0,0,0,0,0,0,0,0,0,0,0],"split_type":[0,0,0,0,0,0,0,0,0,0,0,0,0,0,0,0,0,0,0,0,0,0,0,0,0,0,0,0,0,0,0,0,0,0,0,0,0,0,0],"sum_hessian":[1.041E3,5.53E2,4.88E2,1.58E2,3.95E2,3.88E2,1E2,6.1E1,9.7E1,2.04E2,1.91E2,2.28E2,1.6E2,7.5E1,2.5E1,6.1E1,3.6E1,1.15E2,8.9E1,9.5E1,9.6E1,1.31E2,9.7E1,9.5E1,6.5E1,4.5E1,3E1,6E1,5.5E1,4.4E1,5.1E1,4.6E1,5E1,8.5E1,4.6E1,4.9E1,4.8E1,4.6E1,4.9E1],"tree_param":{"num_deleted":"0","num_feature":"44","num_nodes":"39","size_leaf_vector":"1"}},{"base_weights":[-1.9624361E-3,-2.4247028E-1,2.6792827E-1,-4.6608105E-1,-1.3726181E-1,1.6835722E-1,6.0803115E-1,-6.033659E-1,-3.7142643E-1,-2.1234252E-1,-5.596148E-2,8.703122E-2,2.73597E-1,4.95293E-1,8.421508E-1,-3.537933E-2,-2.6976336E-2,-2.0469494E-2,-1.5984239E-2,-1.2366801E-2,-1.6906536E-1,-9.615269E-2,-2.4678374E-2,5.488637E-2,1.3771524E-1,1.0555312E-2,3.128908E-1,2.1110458E-2,2.8045813E-2,3.44562E-2,4.8561785E-2,-9.214376E-3,-7.4247704E-3,-5.664454E-3,-3.938351E-3,-1.9914352E-3,-1.9011443E-4,1.5176242E-3,3.5741117E-3,5.9023905E-3,7.818649E-3,1.38360355E-2,1.7039908E-2],"categories":[],"categories_nodes":[],"categories_segments":[],"categories_sizes":[],"default_left":[0,0,0,0,0,0,0,0,0,0,0,0,0,0,0,0,0,0,0,0,0,0,0,0,0,0,0,0,0,0,0,0,0,0,0,0,0,0,0,0,0,0,0],"id":4,"left_children":[1,3,5,7,9,11,13,15,17,19,21,23,25,27,29,-1,-1,-1,-1,-1,31,33,35,37,39,-1,41,-1,-1,-1,-1,-1,-1,-1,-1,-1,-1,-1,-1,-1,-1,-1,-1],"loss_changes":[6.653365E1,1.2686981E1,1.6254135E1,2.0239677E0,2.2466288E0,3.1857128E0,2.4598618E0,7.7322006E-2,7.53746E-2,2.4895287E-1,2.2268486E-1,3.394674E-1,3.3419323E-1,1.276722E-1,2.313614E-3,0E0,0E0,0E0,0E0,0E0,5.016327E-4,1.43149495E-2,3.2109074E-2,5.157557E-2,1.16301775E-2,0E0,4.617691E-3,0E0,0E0,0E0,0E0,0E0,0E0,0E0,0E0,0E0,0E0,0E0,0E0,0E0,0E0,0E0,0E0],"parents":[2147483647,0,0,1,1,2,2,3,3,4,4,5,5,6,6,7,7,8,8,9,9,10,10,11,11,12,12,13,13,14,14,20,20,21,21,22,22,23,23,24,24,26,26],"right_children":[2,4,6,8,10,12,14,16,18,20,22,24,26,28,30,-1,-1,-1,-1,-1,32,34,36,38,40,-1,42,-1,-1,-1,-1,-1,-1,-1,-1,-1,-1,-1,-1,-1,-1,-1,-1],"split_conditions":[4.6768055E0,3.1356497E0,6.549722E0,2.2255557E0,3.948611E0,5.5034723E0,7.98E0,2.4163888E-1,2.8175E0,3.5705554E0,4.285E0,5.109028E0,5.9034724E0,7.0702777E0,9.030556E0,-3.537933E-2,-2.6976336E-2,-2.0469494E-2,-1.5984239E-2,-1.2366801E-2,3.7577777E0,4.093954E0,4.5005555E0,4.8344445E0,5.323889E0,1.0555312E-2,6.1581945E0,2.1110458E-2,2.8045813E-2,3.44562E-2,4.8561785E-2,-9.214376E-3,-7.4247704E-3,-5.664454E-3,-3.938351E-3,-1.9914352E-3,-1.9011443E-4,1.5176242E-3,3.5741117E-3,5.9023905E-3,7.818649E-3,1.38360355E-2,1.7039908E-2],"split_indices":[2,2,2,2,2,2,2,34,2,2,2,2,2,2,2,0,0,0,0,0,2,2,2,2,2,0,2,0,0,0,0,0,0,0,0,0,0,0,0,0,0,0,0],"split_type":[0,0,0,0,0,0,0,0,0,0,0,0,0,0,0,0,0,0,0,0,0,0,0,0,0,0,0,0,0,0,0,0,0,0,0,0,0,0,0,0,0,0,0],"sum_hessian":[1.023E3,5.41E2,4.82E2,1.72E2,3.69E2,3.74E2,1.08E2,6.8E1,1.04E2,1.91E2,1.78E2,2.12E2,1.62E2,7.5E1,3.3E1,2.2E1,4.6E1,5.6E1,4.8E1,1.03E2,8.8E1,7.7E1,1.01E2,1.31E2,8.1E1,6.5E1,9.7E1,3.9E1,3.6E1,1.8E1,1.5E1,4.6E1,4.2E1,3.6E1,4.1E1,5.8E1,4.3E1,5.4E1,7.7E1,4.3E1,3.8E1,4.7E1,5E1],"tree_param":{"num_deleted":"0","num_feature":"44","num_nodes":"43","size_leaf_vector":"1"}},{"base_weights":[-6.742419E-4,-2.1477532E-1,2.7533144E-1,-4.462959E-1,-1.1598895E-1,1.8513986E-1,6.492183E-1,-5.843863E-1,-3.5892338E-1,-1.9837257E-1,-4.2731375E-2,1.074238E-1,2.932493E-1,5.490119E-1,4.5644857E-2,-3.3885464E-2,-2.6352474E-2,-2.0211188E-2,-1.5684051E-2,-1.1601087E-2,-7.969568E-3,-7.982229E-2,-3.547008E-3,6.76136E-2,1.537237E-1,1.2396588E-2,1.7379152E-2,2.2505933E-2,3.0423535E-2,-4.749533E-3,-2.5778848E-3,-9.3067624E-4,7.3018763E-4,2.5003995E-3,4.5454595E-3,6.228666E-3,8.443321E-3],"categories":[],"categories_nodes":[],"categories_segments":[],"categories_sizes":[],"default_left":[0,0,0,0,0,0,0,0,0,0,0,0,0,0,0,0,0,0,0,0,0,0,0,0,0,0,0,0,0,0,0,0,0,0,0,0,0],"id":5,"left_children":[1,3,5,7,9,11,13,15,17,19,21,23,25,27,-1,-1,-1,-1,-1,-1,-1,29,31,33,35,-1,-1,-1,-1,-1,-1,-1,-1,-1,-1,-1,-1],"loss_changes":[6.2225086E1,1.3510786E1,1.539167E1,1.9258041E0,2.5082126E0,3.0939817E0,1.8503952E0,1.3217926E-3,1.0069656E-1,2.2010756E-1,3.223681E-1,3.914256E-1,2.95475E-1,1.2008095E-1,0E0,0E0,0E0,0E0,0E0,0E0,0E0,4.39775E-2,3.0079924E-2,4.4259667E-2,2.3105383E-2,0E0,0E0,0E0,0E0,0E0,0E0,0E0,0E0,0E0,0E0,0E0,0E0],"parents":[2147483647,0,0,1,1,2,2,3,3,4,4,5,5,6,6,7,7,8,8,9,9,10,10,11,11,12,12,13,13,21,21,22,22,23,23,24,24],"right_children":[2,4,6,8,10,12,14,16,18,20,22,24,26,28,-1,-1,-1,-1,-1,-1,-1,30,32,34,36,-1,-1,-1,-1,-1,-1,-1,-1,-1,-1,-1,-1],"split_conditions":[4.7619443E0,3.1356497E0,6.841111E0,2.1952777E0,3.948611E0,5.682639E0,8.649479E0,1.1706945E0,2.7259722E0,3.5705554E0,4.4016666E0,5.172222E0,6.179861E0,7.4075E0,4.5644857E-2,-3.3885464E-2,-2.6352474E-2,-2.0211188E-2,-1.5684051E-2,-1.1601087E-2,-7.969568E-3,4.2366667E0,4.5994444E0,4.9844446E0,5.3745832E0,1.2396588E-2,1.7379152E-2,2.2505933E-2,3.0423535E-2,-4.749533E-3,-2.5778848E-3,-9.3067624E-4,7.3018763E-4,2.5003995E-3,4.5454595E-3,6.228666E-3,8.443321E-3],"split_indices":[2,2,2,2,2,2,2,2,2,2,2,2,2,2,0,0,0,0,0,0,0,2,2,2,2,0,0,0,0,0,0,0,0,0,0,0,0],"split_type":[0,0,0,0,0,0,0,0,0,0,0,0,0,0,0,0,0,0,0,0,0,0,0,0,0,0,0,0,0,0,0,0,0,0,0,0,0],"sum_hessian":[1.051E3,5.92E2,4.59E2,1.76E2,4.16E2,3.71E2,8.8E1,6.6E1,1.1E2,1.95E2,2.21E2,2.17E2,1.54E2,6.6E1,2.2E1,2.1E1,4.5E1,5.1E1,5.9E1,1.02E2,9.3E1,1.13E2,1.08E2,1.18E2,9.9E1,8.7E1,6.7E1,2.8E1,3.8E1,7.2E1,4.1E1,5.9E1,4.9E1,6.9E1,4.9E1,3.7E1,6.2E1],"tree_param":{"num_deleted":"0","num_feature":"44","num_nodes":"37","size_leaf_vector":"1"}},{"base_weights":[-8.455759E-3,-2.1885602E-1,2.4585263E-1,-4.416884E-1,-1.2592587E-1,1.5504411E-1,5.800029E-1,-2.9057244E-2,-3.6860913E-1,-1.9715646E-1,-4.690946E-2,8.456472E-2,2.5994816E-1,4.6188927E-1,7.5745136E-1,-2.0674244E-2,-1.6023649E-2,-1.1889618E-2,-1.5769424E-1,-8.5189044E-2,-1.7681608E-2,5.0289724E-2,1.2949483E-1,1.0655118E-2,1.5103941E-2,1.9283889E-2,2.514799E-2,3.1806372E-2,4.422569E-2,-8.793828E-3,-6.8672667E-3,-5.1733814E-3,-3.53837E-3,-1.6576335E-3,-6.5505395E-5,1.2206534E-3,3.0328324E-3,5.444596E-3,7.453711E-3],"categories":[],"categories_nodes":[],"categories_segments":[],"categories_sizes":[],"default_left":[0,0,0,0,0,0,0,0,0,0,0,0,0,0,0,0,0,0,0,0,0,0,0,0,0,0,0,0,0,0,0,0,0,0,0,0,0,0,0],"id":6,"left_children":[1,3,5,7,9,11,13,-1,15,17,19,21,23,25,27,-1,-1,-1,29,31,33,35,37,-1,-1,-1,-1,-1,-1,-1,-1,-1,-1,-1,-1,-1,-1,-1,-1],"loss_changes":[5.4951527E1,1.1582188E1,1.401989E1,1.4673576E0,2.2308493E0,2.6914587E0,1.7250862E0,0E0,1.0726547E-1,2.9765034E-1,2.1107143E-1,3.3382308E-1,2.2575188E-1,8.2969666E-5,2.3136139E-2,0E0,0E0,0E0,1.6173124E-2,1.4293671E-2,2.7564578E-2,3.2588392E-2,2.2089362E-2,0E0,0E0,0E0,0E0,0E0,0E0,0E0,0E0,0E0,0E0,0E0,0E0,0E0,0E0,0E0,0E0],"parents":[2147483647,0,0,1,1,2,2,3,3,4,4,5,5,6,6,8,8,9,9,10,10,11,11,12,12,13,13,14,14,18,18,19,19,20,20,21,21,22,22],"right_children":[2,4,6,8,10,12,14,-1,16,18,20,22,24,26,28,-1,-1,-1,30,32,34,36,38,-1,-1,-1,-1,-1,-1,-1,-1,-1,-1,-1,-1,-1,-1,-1,-1],"split_conditions":[4.688611E0,3.0386112E0,6.712222E0,1.8073611E0,3.948611E0,5.55E0,7.98E0,-2.9057244E-2,2.5322223E0,3.4886112E0,4.31125E0,5.109028E0,6.0441666E0,7.0045834E0,9.030556E0,-2.0674244E-2,-1.6023649E-2,-1.1889618E-2,3.7219443E0,4.093954E0,4.5005555E0,4.8058333E0,5.3406944E0,1.0655118E-2,1.5103941E-2,1.9283889E-2,2.514799E-2,3.1806372E-2,4.422569E-2,-8.793828E-3,-6.8672667E-3,-5.1733814E-3,-3.53837E-3,-1.6576335E-3,-6.5505395E-5,1.2206534E-3,3.0328324E-3,5.444596E-3,7.453711E-3],"split_indices":[2,2,2,2,2,2,2,0,2,2,2,2,2,2,2,0,0,0,2,2,2,2,2,0,0,0,0,0,0,0,0,0,0,0,0,0,0,0,0],"split_type":[0,0,0,0,0,0,0,0,0,0,0,0,0,0,0,0,0,0,0,0,0,0,0,0,0,0,0,0,0,0,0,0,0,0,0,0,0,0,0],"sum_hessian":[1.025E3,5.61E2,4.64E2,1.64E2,3.97E2,3.66E2,9.8E1,5.4E1,1.1E2,2.08E2,1.89E2,2.2E2,1.46E2,6.1E1,3.7E1,5.3E1,5.7E1,1E2,1.08E2,8.1E1,1.08E2,1.26E2,9.4E1,7.2E1,7.4E1,2.5E1,3.6E1,2.2E1,1.5E1,5.3E1,5.5E1,3.3E1,4.8E1,5.5E1,5.3E1,3.7E1,8.9E1,4.9E1,4.5E1],"tree_param":{"num_deleted":"0","num_feature":"44","num_nodes":"39","size_leaf_vector":"1"}},{"base_weights":[2.0565114E-3,-2.0982689E-1,2.3362593E-1,-4.01965E-1,-1.16078205E-1,1.4975837E-1,5.593097E-1,-5.20271E-1,-3.1781405E-1,-1.814027E-1,-4.6431664E-2,7.963517E-2,2.4702321E-1,4.664189E-1,3.9831232E-2,-3.0829085E-2,-2.3568554E-2,-1.7699456E-2,-1.3959683E-2,-1.0706312E-2,-1.4781216E-1,-8.047807E-2,-1.781747E-2,4.7212392E-2,1.2393867E-1,2.1280028E-1,1.4952699E-2,1.9804357E-2,2.719647E-2,-7.92355E-3,-6.133065E-3,-4.961484E-3,-3.1635843E-3,-1.6206075E-3,-9.697117E-5,1.4847817E-3,3.2017424E-3,5.2580307E-3,7.0458553E-3,8.395246E-3,1.125186E-2],"categories":[],"categories_nodes":[],"categories_segments":[],"categories_sizes":[],"default_left":[0,0,0,0,0,0,0,0,0,0,0,0,0,0,0,0,0,0,0,0,0,0,0,0,0,0,0,0,0,0,0,0,0,0,0,0,0,0,0,0,0],"id":7,"left_children":[1,3,5,7,9,11,13,15,17,19,21,23,25,27,-1,-1,-1,-1,-1,-1,29,31,33,35,37,39,-1,-1,-1,-1,-1,-1,-1,-1,-1,-1,-1,-1,-1,-1,-1],"loss_changes":[5.0832035E1,9.69821E0,1.3436821E1,1.5967846E0,1.6521902E0,2.6744337E0,1.8549194E0,4.845047E-2,4.9262047E-2,1.7499924E-1,1.7197552E-1,3.2596684E-1,2.3016739E-1,1.934166E-1,0E0,0E0,0E0,0E0,0E0,0E0,6.2971115E-3,1.9856095E-2,2.264717E-2,3.7879556E-2,1.6106844E-2,1.8801212E-2,0E0,0E0,0E0,0E0,0E0,0E0,0E0,0E0,0E0,0E0,0E0,0E0,0E0,0E0,0E0],"parents":[2147483647,0,0,1,1,2,2,3,3,4,4,5,5,6,6,7,7,8,8,9,9,10,10,11,11,12,12,13,13,20,20,21,21,22,22,23,23,24,24,25,25],"right_children":[2,4,6,8,10,12,14,16,18,20,22,24,26,28,-1,-1,-1,-1,-1,-1,30,32,34,36,38,40,-1,-1,-1,-1,-1,-1,-1,-1,-1,-1,-1,-1,-1,-1,-1],"split_conditions":[4.6768055E0,3.2009723E0,6.712222E0,2.2255557E0,3.948611E0,5.55E0,8.37E0,1.1706945E0,2.7752779E0,3.5229166E0,4.31125E0,5.109028E0,6.1581945E0,7.4075E0,3.9831232E-2,-3.0829085E-2,-2.3568554E-2,-1.7699456E-2,-1.3959683E-2,-1.0706312E-2,3.7954166E0,4.093954E0,4.5005555E0,4.879028E0,5.3406944E0,5.713333E0,1.4952699E-2,1.9804357E-2,2.719647E-2,-7.92355E-3,-6.133065E-3,-4.961484E-3,-3.1635843E-3,-1.6206075E-3,-9.697117E-5,1.4847817E-3,3.2017424E-3,5.2580307E-3,7.0458553E-3,8.395246E-3,1.125186E-2],"split_indices":[2,2,2,2,2,2,2,2,2,2,2,2,2,2,0,0,0,0,0,0,2,2,2,2,2,2,0,0,0,0,0,0,0,0,0,0,0,0,0,0,0],"split_type":[0,0,0,0,0,0,0,0,0,0,0,0,0,0,0,0,0,0,0,0,0,0,0,0,0,0,0,0,0,0,0,0,0,0,0,0,0,0,0,0,0],"sum_hessian":[1.034E3,5.4E2,4.94E2,1.76E2,3.64E2,3.94E2,1E2,7.1E1,1.05E2,1.87E2,1.77E2,2.3E2,1.64E2,7.4E1,2.6E1,2E1,5.1E1,5E1,5.5E1,9.2E1,9.5E1,8E1,9.7E1,1.34E2,9.6E1,1.02E2,6.2E1,4.2E1,3.2E1,6.3E1,3.2E1,3.6E1,4.4E1,5E1,4.7E1,6.7E1,6.7E1,4.9E1,4.7E1,2.5E1,7.7E1],"tree_param":{"num_deleted":"0","num_feature":"44","num_nodes":"41","size_leaf_vector":"1"}},{"base_weights":[-1.254015E-3,-1.873594E-1,2.3434587E-1,-4.2429188E-1,-1.1526839E-1,1.4909758E-1,5.316607E-1,-2.599403E-2,-1.6988106E-2,-1.8625525E-1,-3.704093E-2,9.03163E-2,2.4422029E-1,4.3600008E-1,3.6215197E-2,-1.1340032E-2,-1.5326378E-1,-7.8191794E-2,-1.0999619E-2,5.111557E-2,1.2535909E-1,1.0387017E-2,1.43178925E-2,1.824059E-2,2.483826E-2,-8.485909E-3,-6.4813867E-3,-4.7016083E-3,-3.1875407E-3,-1.1542056E-3,6.304087E-4,1.8716274E-3,3.2302502E-3,5.176683E-3,7.269972E-3],"categories":[],"categories_nodes":[],"categories_segments":[],"categories_sizes":[],"default_left":[0,0,0,0,0,0,0,0,0,0,0,0,0,0,0,0,0,0,0,0,0,0,0,0,0,0,0,0,0,0,0,0,0,0,0],"id":8,"left_children":[1,3,5,7,9,11,13,-1,-1,15,17,19,21,23,-1,-1,25,27,29,31,33,-1,-1,-1,-1,-1,-1,-1,-1,-1,-1,-1,-1,-1,-1],"loss_changes":[4.5205704E1,9.789576E0,1.14529705E1,9.060974E-1,2.4531345E0,1.9629016E0,1.5454674E0,0E0,0E0,2.7557468E-1,2.263239E-1,2.971804E-1,1.4803028E-1,1.2157822E-1,0E0,0E0,2.894783E-2,1.2762904E-2,3.7663803E-2,1.7146736E-2,3.5683513E-2,0E0,0E0,0E0,0E0,0E0,0E0,0E0,0E0,0E0,0E0,0E0,0E0,0E0,0E0],"parents":[2147483647,0,0,1,1,2,2,3,3,4,4,5,5,6,6,9,9,10,10,11,11,12,12,13,13,16,16,17,17,18,18,19,19,20,20],"right_children":[2,4,6,8,10,12,14,-1,-1,16,18,20,22,24,-1,-1,26,28,30,32,34,-1,-1,-1,-1,-1,-1,-1,-1,-1,-1,-1,-1,-1,-1],"split_conditions":[4.7619443E0,2.9520833E0,6.712222E0,1.8073611E0,3.948611E0,5.682639E0,8.283889E0,-2.599403E-2,-1.6988106E-2,3.4248612E0,4.285E0,5.109028E0,6.1483335E0,7.226389E0,3.6215197E-2,-1.1340032E-2,3.69125E0,4.093954E0,4.5994444E0,4.9505553E0,5.3745832E0,1.0387017E-2,1.43178925E-2,1.824059E-2,2.483826E-2,-8.485909E-3,-6.4813867E-3,-4.7016083E-3,-3.1875407E-3,-1.1542056E-3,6.304087E-4,1.8716274E-3,3.2302502E-3,5.176683E-3,7.269972E-3],"split_indices":[2,2,2,2,2,2,2,0,0,2,2,2,2,2,0,0,2,2,2,2,2,0,0,0,0,0,0,0,0,0,0,0,0,0,0],"split_type":[0,0,0,0,0,0,0,0,0,0,0,0,0,0,0,0,0,0,0,0,0,0,0,0,0,0,0,0,0,0,0,0,0,0,0],"sum_hessian":[1.029E3,5.75E2,4.54E2,1.33E2,4.42E2,3.54E2,1E2,6E1,7.3E1,2.31E2,2.11E2,2.2E2,1.34E2,6.9E1,3.1E1,1.01E2,1.3E2,8.1E1,1.3E2,1.05E2,1.15E2,7.5E1,5.9E1,3.5E1,3.4E1,7.3E1,5.7E1,3.6E1,4.5E1,8.6E1,4.4E1,5.4E1,5.1E1,5.8E1,5.7E1],"tree_param":{"num_deleted":"0","num_feature":"44","num_nodes":"35","size_leaf_vector":"1"}},{"base_weights":[2.486289E-3,-1.7406924E-1,2.4197483E-1,-3.6321956E-1,-9.3957305E-2,1.6010426E-1,5.386847E-1,-2.4650602E-2,-2.974451E-1,-1.5301712E-1,-2.2460096E-2,9.52832E-2,2.4873687E-1,4.588498E-1,3.8773857E-2,-1.6941234E-2,-1.2797095E-2,-9.672689E-3,-1.2432682E-1,-5.490658E-2,5.4247957E-4,5.948354E-2,1.3048203E-1,1.0401997E-2,1.446839E-2,1.922004E-2,2.5767311E-2,-7.0797303E-3,-5.2615344E-3,-3.344149E-3,-2.0928462E-3,-7.79384E-4,7.77543E-4,2.0760393E-3,3.5383347E-3,5.1891776E-3,7.173057E-3],"categories":[],"categories_nodes":[],"categories_segments":[],"categories_sizes":[],"default_left":[0,0,0,0,0,0,0,0,0,0,0,0,0,0,0,0,0,0,0,0,0,0,0,0,0,0,0,0,0,0,0,0,0,0,0,0,0],"id":9,"left_children":[1,3,5,7,9,11,13,-1,15,17,19,21,23,25,-1,-1,-1,-1,27,29,31,33,35,-1,-1,-1,-1,-1,-1,-1,-1,-1,-1,-1,-1,-1,-1],"loss_changes":[4.3043957E1,8.84565E0,1.0407816E1,1.3387966E0,1.7405021E0,1.9296875E0,1.4022732E0,0E0,1.1593151E-1,2.3814058E-1,1.4034411E-1,2.4173951E-1,1.7625809E-1,1.0474014E-1,0E0,0E0,0E0,0E0,2.9615879E-2,9.390935E-3,2.711412E-2,1.7329395E-2,1.941681E-2,0E0,0E0,0E0,0E0,0E0,0E0,0E0,0E0,0E0,0E0,0E0,0E0,0E0,0E0],"parents":[2147483647,0,0,1,1,2,2,3,3,4,4,5,5,6,6,8,8,9,9,10,10,11,11,12,12,13,13,18,18,19,19,20,20,21,21,22,22],"right_children":[2,4,6,8,10,12,14,-1,16,18,20,22,24,26,-1,-1,-1,-1,28,30,32,34,36,-1,-1,-1,-1,-1,-1,-1,-1,-1,-1,-1,-1,-1,-1],"split_conditions":[4.8058333E0,3.2009723E0,6.919028E0,1.8073611E0,4.07875E0,5.7472224E0,9.030556E0,-2.4650602E-2,2.6583333E0,3.5229166E0,4.4016666E0,5.18375E0,6.2197223E0,7.593472E0,3.8773857E-2,-1.6941234E-2,-1.2797095E-2,-9.672689E-3,3.7954166E0,4.2366667E0,4.5994444E0,4.9505553E0,5.393472E0,1.0401997E-2,1.446839E-2,1.922004E-2,2.5767311E-2,-7.0797303E-3,-5.2615344E-3,-3.344149E-3,-2.0928462E-3,-7.79384E-4,7.77543E-4,2.0760393E-3,3.5383347E-3,5.1891776E-3,7.173057E-3],"split_indices":[2,2,2,2,2,2,2,0,2,2,2,2,2,2,0,0,0,0,2,2,2,2,2,0,0,0,0,0,0,0,0,0,0,0,0,0,0],"split_type":[0,0,0,0,0,0,0,0,0,0,0,0,0,0,0,0,0,0,0,0,0,0,0,0,0,0,0,0,0,0,0,0,0,0,0,0,0],"sum_hessian":[1.016E3,5.85E2,4.31E2,1.73E2,4.12E2,3.39E2,9.2E1,5.6E1,1.17E2,2.25E2,1.87E2,1.97E2,1.42E2,7.1E1,2.1E1,5.5E1,6.2E1,9.1E1,1.34E2,7.7E1,1.1E2,9.9E1,9.8E1,7.4E1,6.8E1,3.4E1,3.7E1,6.7E1,6.7E1,3.8E1,3.9E1,5.3E1,5.7E1,4E1,5.9E1,3.5E1,6.3E1],"tree_param":{"num_deleted":"0","num_feature":"44","num_nodes":"37","size_leaf_vector":"1"}},{"base_weights":[4.2679864E-3,-1.4462839E-1,2.5578675E-1,-3.1192356E-1,-5.888883E-2,1.7427355E-1,5.2706087E-1,-4.4633892E-1,-2.4577986E-1,-1.323922E-1,-6.7360946E-3,1.1541792E-1,2.5276592E-1,4.4580868E-1,3.7527677E-2,-2.6523245E-2,-1.9887112E-2,-1.4392952E-2,-1.058036E-2,-7.870734E-3,-1.0185546E-1,-4.2925693E-2,2.0265372E-2,7.792716E-2,1.3882132E-1,1.0635003E-2,1.4534679E-2,1.894158E-2,2.4983687E-2,-5.668921E-3,-4.331691E-3,-2.7412758E-3,-1.4275443E-3,2.9063635E-4,1.8049993E-3,2.6931667E-3,4.34158E-3,5.945871E-3,7.8219175E-3],"categories":[],"categories_nodes":[],"categories_segments":[],"categories_sizes":[],"default_left":[0,0,0,0,0,0,0,0,0,0,0,0,0,0,0,0,0,0,0,0,0,0,0,0,0,0,0,0,0,0,0,0,0,0,0,0,0,0,0],"id":10,"left_children":[1,3,5,7,9,11,13,15,17,19,21,23,25,27,-1,-1,-1,-1,-1,-1,29,31,33,35,37,-1,-1,-1,-1,-1,-1,-1,-1,-1,-1,-1,-1,-1,-1],"loss_changes":[3.8573284E1,9.26208E0,8.377207E0,1.8373661E0,1.6436379E0,1.3382626E0,1.2634125E0,7.927704E-2,1.533432E-1,1.19977E-1,2.4711731E-1,1.3921928E-1,1.2963963E-1,5.2425385E-2,0E0,0E0,0E0,0E0,0E0,0E0,4.735589E-3,1.6908899E-2,3.2973718E-2,9.893656E-3,1.7863989E-2,0E0,0E0,0E0,0E0,0E0,0E0,0E0,0E0,0E0,0E0,0E0,0E0,0E0,0E0],"parents":[2147483647,0,0,1,1,2,2,3,3,4,4,5,5,6,6,7,7,8,8,9,9,10,10,11,11,12,12,13,13,20,20,21,21,22,22,23,23,24,24],"right_children":[2,4,6,8,10,12,14,16,18,20,22,24,26,28,-1,-1,-1,-1,-1,-1,30,32,34,36,38,-1,-1,-1,-1,-1,-1,-1,-1,-1,-1,-1,-1,-1,-1],"split_conditions":[4.9844446E0,3.34375E0,7.0045834E0,2.2831945E0,4.093954E0,5.8570833E0,9.030556E0,3.2816666E-1,2.9520833E0,3.7219443E0,4.5005555E0,5.323889E0,6.329583E0,7.6626387E0,3.7527677E-2,-2.6523245E-2,-1.9887112E-2,-1.4392952E-2,-1.058036E-2,-7.870734E-3,3.9297223E0,4.3333335E0,4.7619443E0,2.4014677E2,5.5308332E0,1.0635003E-2,1.4534679E-2,1.894158E-2,2.4983687E-2,-5.668921E-3,-4.331691E-3,-2.7412758E-3,-1.4275443E-3,2.9063635E-4,1.8049993E-3,2.6931667E-3,4.34158E-3,5.945871E-3,7.8219175E-3],"split_indices":[2,2,2,2,2,2,2,30,2,2,2,2,2,2,0,0,0,0,0,0,2,2,2,1,2,0,0,0,0,0,0,0,0,0,0,0,0,0,0],"split_type":[0,0,0,0,0,0,0,0,0,0,0,0,0,0,0,0,0,0,0,0,0,0,0,0,0,0,0,0,0,0,0,0,0,0,0,0,0,0,0],"sum_hessian":[1.028E3,6.46E2,3.82E2,2.18E2,4.28E2,2.95E2,8.7E1,7E1,1.48E2,1.77E2,2.51E2,1.7E2,1.25E2,6.6E1,2.1E1,2.2E1,4.8E1,6.3E1,8.5E1,9.5E1,8.2E1,1.07E2,1.44E2,6.7E1,1.03E2,6.4E1,6.1E1,3.3E1,3.3E1,4.3E1,3.9E1,5.7E1,5E1,7.6E1,6.8E1,2E1,4.7E1,5.2E1,5.1E1],"tree_param":{"num_deleted":"0","num_feature":"44","num_nodes":"39","size_leaf_vector":"1"}},{"base_weights":[2.8033461E-3,-1.6829415E-1,1.9381489E-1,-3.3342618E-1,-9.41538E-2,1.2080921E-1,4.5409417E-1,-4.227658E-1,-2.6387888E-1,-1.4914759E-1,-3.89506E-2,6.794487E-2,1.9861534E-1,1.7101785E-2,5.800379E-1,-2.574878E-2,-1.895852E-2,-1.4919485E-2,-1.1751566E-2,-8.7730745E-3,-1.2209468E-1,-6.7373864E-2,-1.56188235E-2,3.8462613E-2,1.0095816E-1,8.061523E-3,1.1512319E-2,2.512612E-2,3.5853524E-2,-6.6506523E-3,-5.289888E-3,-3.915655E-3,-2.5680752E-3,-1.4260272E-3,-1.3329185E-4,1.1635021E-3,2.3898743E-3,4.214904E-3,5.716396E-3],"categories":[],"categories_nodes":[],"categories_segments":[],"categories_sizes":[],"default_left":[0,0,0,0,0,0,0,0,0,0,0,0,0,0,0,0,0,0,0,0,0,0,0,0,0,0,0,0,0,0,0,0,0,0,0,0,0,0,0],"id":11,"left_children":[1,3,5,7,9,11,13,15,17,19,21,23,25,-1,27,-1,-1,-1,-1,-1,29,31,33,35,37,-1,-1,-1,-1,-1,-1,-1,-1,-1,-1,-1,-1,-1,-1],"loss_changes":[3.3269802E1,6.543071E0,9.085039E0,9.198532E-1,1.1235209E0,1.5371699E0,1.2834759E0,9.015083E-2,2.5441647E-2,1.10984325E-1,1.22959584E-1,2.1608412E-1,1.4262056E-1,0E0,1.4951897E-1,0E0,0E0,0E0,0E0,0E0,2.831459E-3,1.0691434E-2,1.7304013E-2,1.6048059E-2,1.3972998E-2,0E0,0E0,0E0,0E0,0E0,0E0,0E0,0E0,0E0,0E0,0E0,0E0,0E0,0E0],"parents":[2147483647,0,0,1,1,2,2,3,3,4,4,5,5,6,6,7,7,8,8,9,9,10,10,11,11,12,12,14,14,20,20,21,21,22,22,23,23,24,24],"right_children":[2,4,6,8,10,12,14,16,18,20,22,24,26,-1,28,-1,-1,-1,-1,-1,30,32,34,36,38,-1,-1,-1,-1,-1,-1,-1,-1,-1,-1,-1,-1,-1,-1],"split_conditions":[4.688611E0,3.1356497E0,6.712222E0,2.2255557E0,3.948611E0,5.55E0,7.73125E0,1.1706945E0,2.6183333E0,3.5229166E0,4.285E0,5.0806947E0,6.024028E0,1.7101785E-2,9.191527E0,-2.574878E-2,-1.895852E-2,-1.4919485E-2,-1.1751566E-2,-8.7730745E-3,3.7577777E0,4.1643057E0,4.484861E0,4.8344445E0,5.323889E0,8.061523E-3,1.1512319E-2,2.512612E-2,3.5853524E-2,-6.6506523E-3,-5.289888E-3,-3.915655E-3,-2.5680752E-3,-1.4260272E-3,-1.3329185E-4,1.1635021E-3,2.3898743E-3,4.214904E-3,5.716396E-3],"split_indices":[2,2,2,2,2,2,2,2,2,2,2,2,2,0,2,0,0,0,0,0,2,2,2,2,2,0,0,0,0,0,0,0,0,0,0,0,0,0,0],"split_type":[0,0,0,0,0,0,0,0,0,0,0,0,0,0,0,0,0,0,0,0,0,0,0,0,0,0,0,0,0,0,0,0,0,0,0,0,0,0,0],"sum_hessian":[1.016E3,5.36E2,4.8E2,1.65E2,3.71E2,3.76E2,1.04E2,7E1,9.5E1,1.85E2,1.86E2,2.25E2,1.51E2,5.7E1,4.7E1,1.9E1,5.1E1,3.9E1,5.6E1,9.1E1,9.4E1,8.3E1,1.03E2,1.2E2,1.05E2,7.2E1,7.9E1,3.3E1,1.4E1,5.2E1,4.2E1,4.7E1,3.6E1,5.1E1,5.2E1,4.7E1,7.3E1,5E1,5.5E1],"tree_param":{"num_deleted":"0","num_feature":"44","num_nodes":"39","size_leaf_vector":"1"}},{"base_weights":[-2.727895E-3,-1.5898201E-1,1.8050636E-1,-3.123965E-1,-9.078341E-2,1.1072143E-1,4.166207E-1,-4.1831252E-1,-2.5286654E-1,-1.4095153E-1,-3.8564034E-2,5.6095682E-2,1.7758767E-1,1.6188199E-2,5.443268E-1,-2.427172E-2,-1.8173413E-2,-1.4083646E-2,-1.0710581E-2,-8.378543E-3,-1.16518214E-1,-6.42354E-2,-1.7372513E-2,3.442389E-2,8.664558E-2,7.0912153E-3,1.047894E-2,2.3130659E-2,3.234474E-2,-6.197465E-3,-4.816185E-3,-3.9580925E-3,-2.6476725E-3,-1.5093245E-3,-1.4808132E-4,1.075553E-3,2.2255094E-3,3.0535783E-3,4.73676E-3],"categories":[],"categories_nodes":[],"categories_segments":[],"categories_sizes":[],"default_left":[0,0,0,0,0,0,0,0,0,0,0,0,0,0,0,0,0,0,0,0,0,0,0,0,0,0,0,0,0,0,0,0,0,0,0,0,0,0,0],"id":12,"left_children":[1,3,5,7,9,11,13,15,17,19,21,23,25,-1,27,-1,-1,-1,-1,-1,29,31,33,35,37,-1,-1,-1,-1,-1,-1,-1,-1,-1,-1,-1,-1,-1,-1],"loss_changes":[2.954737E1,5.7993383E0,7.780553E0,9.724064E-1,1.0084066E0,1.3342023E0,1.1044712E0,4.44355E-2,6.437588E-2,1.0860348E-1,1.0279098E-1,1.3207984E-1,1.5905428E-1,0E0,6.951046E-2,0E0,0E0,0E0,0E0,0E0,3.967881E-3,1.0290444E-2,1.948464E-2,1.4801905E-2,1.1592627E-2,0E0,0E0,0E0,0E0,0E0,0E0,0E0,0E0,0E0,0E0,0E0,0E0,0E0,0E0],"parents":[2147483647,0,0,1,1,2,2,3,3,4,4,5,5,6,6,7,7,8,8,9,9,10,10,11,11,12,12,14,14,20,20,21,21,22,22,23,23,24,24],"right_children":[2,4,6,8,10,12,14,16,18,20,22,24,26,-1,28,-1,-1,-1,-1,-1,30,32,34,36,38,-1,-1,-1,-1,-1,-1,-1,-1,-1,-1,-1,-1,-1,-1],"split_conditions":[4.6768055E0,3.1356497E0,6.549722E0,2.1115277E0,3.948611E0,5.4576387E0,7.73125E0,2.4163888E-1,2.7752779E0,3.5151389E0,4.285E0,5.055278E0,5.946111E0,1.6188199E-2,9.030556E0,-2.427172E-2,-1.8173413E-2,-1.4083646E-2,-1.0710581E-2,-8.378543E-3,3.7954166E0,4.07875E0,4.484861E0,4.8344445E0,1.0766217E0,7.0912153E-3,1.047894E-2,2.3130659E-2,3.234474E-2,-6.197465E-3,-4.816185E-3,-3.9580925E-3,-2.6476725E-3,-1.5093245E-3,-1.4808132E-4,1.075553E-3,2.2255094E-3,3.0535783E-3,4.73676E-3],"split_indices":[2,2,2,2,2,2,2,30,2,2,2,2,2,0,2,0,0,0,0,0,2,2,2,2,41,0,0,0,0,0,0,0,0,0,0,0,0,0,0],"split_type":[0,0,0,0,0,0,0,0,0,0,0,0,0,0,0,0,0,0,0,0,0,0,0,0,0,0,0,0,0,0,0,0,0,0,0,0,0,0,0],"sum_hessian":[1.03E3,5.56E2,4.74E2,1.7E2,3.86E2,3.67E2,1.07E2,5.9E1,1.11E2,1.96E2,1.9E2,2.03E2,1.64E2,6.4E1,4.3E1,2.3E1,3.6E1,6E1,5.1E1,9.1E1,1.05E2,8.5E1,1.05E2,1.2E2,8.3E1,8E1,8.4E1,2.7E1,1.6E1,7.3E1,3.2E1,3.4E1,5.1E1,5.5E1,5E1,5.4E1,6.6E1,2.2E1,6.1E1],"tree_param":{"num_deleted":"0","num_feature":"44","num_nodes":"39","size_leaf_vector":"1"}},{"base_weights":[-4.072639E-3,-1.5205416E-1,1.7395657E-1,-3.0084014E-1,-8.417173E-2,1.0649105E-1,3.9255807E-1,-4.018013E-1,-2.4240686E-1,-1.3688071E-1,-3.2373257E-2,5.7384666E-2,1.7298865E-1,3.1886622E-1,5.413587E-1,-2.3442484E-2,-1.7719438E-2,-1.399861E-2,-1.0785638E-2,-8.078418E-3,-1.13513514E-1,-5.7918135E-2,-1.0786106E-2,3.425558E-2,8.349882E-2,6.722085E-3,9.902472E-3,1.3760504E-2,1.8234998E-2,2.3617243E-2,3.4412466E-2,-6.259789E-3,-4.9430015E-3,-3.5627838E-3,-2.2911497E-3,-1.3739944E-3,-1.0287754E-4,8.611525E-4,2.155961E-3,3.4014992E-3,4.778852E-3],"categories":[],"categories_nodes":[],"categories_segments":[],"categories_sizes":[],"default_left":[0,0,0,0,0,0,0,0,0,0,0,0,0,0,0,0,0,0,0,0,0,0,0,0,0,0,0,0,0,0,0,0,0,0,0,0,0,0,0,0,0],"id":13,"left_children":[1,3,5,7,9,11,13,15,17,19,21,23,25,27,29,-1,-1,-1,-1,-1,31,33,35,37,39,-1,-1,-1,-1,-1,-1,-1,-1,-1,-1,-1,-1,-1,-1,-1,-1],"loss_changes":[2.7161837E1,5.6609526E0,6.8602886E0,9.4091034E-1,1.054904E0,1.1623726E0,1.0335732E0,3.4118652E-2,5.3922176E-2,9.242082E-2,1.0800922E-1,1.22770905E-1,1.2020826E-1,5.1700592E-2,2.972126E-2,0E0,0E0,0E0,0E0,0E0,5.084157E-3,1.1253595E-2,1.5680417E-2,1.6166016E-2,1.1620998E-2,0E0,0E0,0E0,0E0,0E0,0E0,0E0,0E0,0E0,0E0,0E0,0E0,0E0,0E0,0E0,0E0],"parents":[2147483647,0,0,1,1,2,2,3,3,4,4,5,5,6,6,7,7,8,8,9,9,10,10,11,11,12,12,13,13,14,14,20,20,21,21,22,22,23,23,24,24],"right_children":[2,4,6,8,10,12,14,16,18,20,22,24,26,28,30,-1,-1,-1,-1,-1,32,34,36,38,40,-1,-1,-1,-1,-1,-1,-1,-1,-1,-1,-1,-1,-1,-1,-1,-1],"split_conditions":[4.7206945E0,3.1356497E0,6.549722E0,2.1115277E0,3.948611E0,5.5034723E0,7.98E0,1.1706945E0,2.5607789E0,3.4886112E0,4.3333335E0,5.065417E0,5.9034724E0,7.1931944E0,9.578889E0,-2.3442484E-2,-1.7719438E-2,-1.399861E-2,-1.0785638E-2,-8.078418E-3,3.7E0,1.0282595E0,1.0367718E0,1.064192E0,5.2483335E0,6.722085E-3,9.902472E-3,1.3760504E-2,1.8234998E-2,2.3617243E-2,3.4412466E-2,-6.259789E-3,-4.9430015E-3,-3.5627838E-3,-2.2911497E-3,-1.3739944E-3,-1.0287754E-4,8.611525E-4,2.155961E-3,3.4014992E-3,4.778852E-3],"split_indices":[2,2,2,2,2,2,2,2,2,2,2,2,2,2,2,0,0,0,0,0,2,28,28,32,2,0,0,0,0,0,0,0,0,0,0,0,0,0,0,0,0],"split_type":[0,0,0,0,0,0,0,0,0,0,0,0,0,0,0,0,0,0,0,0,0,0,0,0,0,0,0,0,0,0,0,0,0,0,0,0,0,0,0,0,0],"sum_hessian":[1.029E3,5.62E2,4.67E2,1.75E2,3.87E2,3.58E2,1.09E2,6.2E1,1.13E2,1.91E2,1.96E2,2.07E2,1.51E2,7.5E1,3.4E1,2.2E1,4E1,4.3E1,7E1,9E1,1.01E2,8.9E1,1.07E2,1.11E2,9.6E1,6.2E1,8.9E1,4.2E1,3.3E1,2.6E1,8E0,5.2E1,4.9E1,4E1,4.9E1,3.6E1,7.1E1,3.9E1,7.2E1,4.5E1,5.1E1],"tree_param":{"num_deleted":"0","num_feature":"44","num_nodes":"41","size_leaf_vector":"1"}},{"base_weights":[-2.5607077E-3,-1.5221217E-1,1.2228829E-1,-2.8113648E-1,-9.716995E-2,6.252935E-2,2.847017E-1,-2.1561226E-2,-2.4244441E-1,-1.22944556E-1,1.4562964E-2,1.1909582E-2,1.3823067E-1,2.1274127E-1,4.629642E-1,-2.590251E-1,-9.6251085E-2,-1.664954E-1,-8.2269E-2,-1.009557E-2,1.8227002E-1,-2.2420576E-2,5.7896655E-2,1.0453394E-1,2.542015E-1,1.8493146E-1,3.4151638E-1,3.3322737E-2,2.0161226E-2,-1.4032746E-2,-8.479029E-3,-3.4683844E-4,-7.560272E-3,-9.269418E-3,-6.3974247E-3,-5.6340373E-3,-2.7407617E-3,-3.2927E-3,7.234123E-4,3.7908554E-3,1.1548917E-2,-9.514313E-3,-6.115713E-4,8.341032E-4,5.060427E-3,2.5387404E-3,7.417593E-3,1.06118005E-2,2.3597023E-2,6.7819483E-3,1.2823584E-2,9.6621495E-3,1.8503858E-2],"categories":[],"categories_nodes":[],"categories_segments":[],"categories_sizes":[],"default_left":[0,0,0,0,0,0,0,0,0,0,0,0,0,0,0,0,0,0,0,0,0,0,0,0,0,0,0,0,0,0,0,0,0,0,0,0,0,0,0,0,0,0,0,0,0,0,0,0,0,0,0,0,0],"id":14,"left_children":[1,3,5,7,9,11,13,-1,15,17,19,21,23,25,27,29,31,33,35,37,39,41,43,45,47,49,51,-1,-1,-1,-1,-1,-1,-1,-1,-1,-1,-1,-1,-1,-1,-1,-1,-1,-1,-1,-1,-1,-1,-1,-1,-1,-1],"loss_changes":[1.9020077E1,3.2582607E0,5.3688345E0,6.9684696E-1,9.406285E-1,1.5579708E0,1.8128567E0,0E0,2.4655533E-1,4.5573807E-1,2.5823554E-1,3.8809025E-1,6.1040497E-1,3.2361364E-1,2.4184036E-1,1.4587307E-1,6.2757865E-2,6.8769455E-2,1.0987675E-1,7.628298E-2,2.3969054E-2,2.3884016E-1,1.8574518E-1,2.9398596E-1,2.2878814E-1,2.8611445E-1,4.7113895E-3,0E0,0E0,0E0,0E0,0E0,0E0,0E0,0E0,0E0,0E0,0E0,0E0,0E0,0E0,0E0,0E0,0E0,0E0,0E0,0E0,0E0,0E0,0E0,0E0,0E0,0E0],"parents":[2147483647,0,0,1,1,2,2,3,3,4,4,5,5,6,6,8,8,9,9,10,10,11,11,12,12,13,13,14,14,15,15,16,16,17,17,18,18,19,19,20,20,21,21,22,22,23,23,24,24,25,25,26,26],"right_children":[2,4,6,8,10,12,14,-1,16,18,20,22,24,26,28,30,32,34,36,38,40,42,44,46,48,50,52,-1,-1,-1,-1,-1,-1,-1,-1,-1,-1,-1,-1,-1,-1,-1,-1,-1,-1,-1,-1,-1,-1,-1,-1,-1,-1],"split_conditions":[1.0602295E0,5.328E3,2.5365415E-1,3.2816666E-1,2.6240554E-1,1.3237E0,1.4740144E0,-2.1561226E-2,1.6115417E-1,8.6772215E-1,8.9111805E-1,-3.186111E-2,2.897E3,6.394569E-1,2.3950916E2,6.2719864E-1,4.147E3,7.849E3,-8.6365275E-2,5.6411946E-1,1.3881388E-1,3.965E3,1.1179625E0,1.061E4,1.7223965E0,1.1244333E0,1.1915629E0,3.3322737E-2,2.0161226E-2,-1.4032746E-2,-8.479029E-3,-3.4683844E-4,-7.560272E-3,-9.269418E-3,-6.3974247E-3,-5.6340373E-3,-2.7407617E-3,-3.2927E-3,7.234123E-4,3.7908554E-3,1.1548917E-2,-9.514313E-3,-6.115713E-4,8.341032E-4,5.060427E-3,2.5387404E-3,7.417593E-3,1.06118005E-2,2.3597023E-2,6.7819483E-3,1.2823584E-2,9.6621495E-3,1.8503858E-2],"split_indices":[40,5,42,30,42,40,40,0,42,40,22,42,3,42,1,30,5,5,42,22,0,5,22,5,40,22,28,0,0,0,0,0,0,0,0,0,0,0,0,0,0,0,0,0,0,0,0,0,0,0,0,0,0],"split_type":[0,0,0,0,0,0,0,0,0,0,0,0,0,0,0,0,0,0,0,0,0,0,0,0,0,0,0,0,0,0,0,0,0,0,0,0,0,0,0,0,0,0,0,0,0,0,0,0,0,0,0,0,0],"sum_hessian":[1.016E3,4.62E2,5.54E2,1.37E2,3.25E2,4.06E2,1.48E2,2.6E1,1.11E2,2.64E2,6.1E1,2.44E2,1.62E2,1.07E2,4.1E1,9.9E1,1.2E1,1.26E2,1.38E2,5.4E1,7E0,1.4E2,1.04E2,1.27E2,3.5E1,9E1,1.7E1,7E0,3.4E1,7.8E1,2.1E1,5E0,7E0,8.2E1,4.4E1,6.4E1,7.4E1,1.6E1,3.8E1,3E0,4E0,7E0,1.33E2,5.4E1,5E1,5.8E1,6.9E1,3.1E1,4E0,5.5E1,3.5E1,4E0,1.3E1],"tree_param":{"num_deleted":"0","num_feature":"44","num_nodes":"53","size_leaf_vector":"1"}},{"base_weights":[2.429349E-3,-1.1204291E-1,1.8696289E-1,-2.6404157E-1,-5.336515E-2,1.2837803E-1,4.0373293E-1,-3.4666982E-1,-2.0464623E-1,-1.0974309E-1,-7.7480357E-3,7.899138E-2,1.8613318E-1,3.385832E-1,2.8597325E-2,-2.0455718E-2,-1.5386775E-2,-1.1658378E-2,-8.989175E-3,-1.3211289E-1,-8.250182E-2,-3.55466E-2,1.362996E-2,5.9208997E-2,5.090949E-3,7.875088E-3,1.1073009E-2,1.4255968E-2,1.8927336E-2,-7.0926696E-3,-5.781192E-3,-4.2904755E-3,-2.6098615E-3,-2.5667825E-3,-1.3030955E-3,-1.9165409E-5,1.2135578E-3,1.8522432E-3,3.33513E-3],"categories":[],"categories_nodes":[],"categories_segments":[],"categories_sizes":[],"default_left":[0,0,0,0,0,0,0,0,0,0,0,0,0,0,0,0,0,0,0,0,0,0,0,0,0,0,0,0,0,0,0,0,0,0,0,0,0,0,0],"id":15,"left_children":[1,3,5,7,9,11,13,15,17,19,21,23,25,27,-1,-1,-1,-1,-1,29,31,33,35,37,-1,-1,-1,-1,-1,-1,-1,-1,-1,-1,-1,-1,-1,-1,-1],"loss_changes":[2.190538E1,5.694031E0,4.989847E0,8.026333E-1,1.1898924E0,8.8092947E-1,7.2690964E-1,5.158043E-2,3.3246994E-2,1.1524272E-1,1.5321386E-1,7.1192384E-2,1.10770226E-1,2.6675224E-2,0E0,0E0,0E0,0E0,0E0,1.5867949E-3,5.1438212E-3,1.5434578E-2,2.1780517E-2,1.3141394E-2,0E0,0E0,0E0,0E0,0E0,0E0,0E0,0E0,0E0,0E0,0E0,0E0,0E0,0E0,0E0],"parents":[2147483647,0,0,1,1,2,2,3,3,4,4,5,5,6,6,7,7,8,8,9,9,10,10,11,11,12,12,13,13,19,19,20,20,21,21,22,22,23,23],"right_children":[2,4,6,8,10,12,14,16,18,20,22,24,26,28,-1,-1,-1,-1,-1,30,32,34,36,38,-1,-1,-1,-1,-1,-1,-1,-1,-1,-1,-1,-1,-1,-1,-1],"split_conditions":[4.9505553E0,3.2444444E0,6.919028E0,2.2831945E0,4.07875E0,5.7472224E0,8.649479E0,1.4622222E0,2.8175E0,3.69125E0,4.5005555E0,5.323889E0,6.2775E0,7.593472E0,2.8597325E-2,-2.0455718E-2,-1.5386775E-2,-1.1658378E-2,-8.989175E-3,3.4886112E0,9.386139E-1,4.2366667E0,4.7206945E0,2.4004901E2,5.090949E-3,7.875088E-3,1.1073009E-2,1.4255968E-2,1.8927336E-2,-7.0926696E-3,-5.781192E-3,-4.2904755E-3,-2.6098615E-3,-2.5667825E-3,-1.3030955E-3,-1.9165409E-5,1.2135578E-3,1.8522432E-3,3.33513E-3],"split_indices":[2,2,2,2,2,2,2,2,2,2,2,2,2,2,0,0,0,0,0,2,30,2,2,1,0,0,0,0,0,0,0,0,0,0,0,0,0,0,0],"split_type":[0,0,0,0,0,0,0,0,0,0,0,0,0,0,0,0,0,0,0,0,0,0,0,0,0,0,0,0,0,0,0,0,0,0,0,0,0,0,0],"sum_hessian":[1.035E3,6.39E2,3.96E2,1.77E2,4.62E2,3.13E2,8.3E1,7.2E1,1.05E2,2.06E2,2.56E2,1.7E2,1.43E2,6.2E1,2.1E1,2.4E1,4.8E1,4.5E1,6E1,1.11E2,9.5E1,1.11E2,1.45E2,9.3E1,7.7E1,8.2E1,6.1E1,3E1,3.2E1,6.5E1,4.6E1,8.4E1,1.1E1,4E1,7.1E1,6.3E1,8.2E1,2.5E1,6.8E1],"tree_param":{"num_deleted":"0","num_feature":"44","num_nodes":"39","size_leaf_vector":"1"}},{"base_weights":[-8.3319325E-4,-1.4069644E-1,1.4377756E-1,-2.7798143E-1,-8.760379E-2,8.37817E-2,3.3150193E-1,-1.7910732E-2,-2.273158E-1,-1.299625E-1,-4.1970864E-2,4.631778E-2,1.4722157E-1,2.5954625E-1,4.606675E-1,-1.2761883E-2,-9.965756E-3,-7.682395E-3,-1.0709286E-1,-6.245601E-2,-1.9863283E-2,2.6145829E-2,7.498718E-2,5.760707E-3,8.347668E-3,1.145299E-2,1.5017276E-2,2.0132864E-2,3.1431593E-2,-5.741551E-3,-4.551915E-3,-3.5560715E-3,-2.390715E-3,-1.7083932E-3,-5.8143155E-4,5.684599E-4,1.7903721E-3,2.8204813E-3,4.058515E-3],"categories":[],"categories_nodes":[],"categories_segments":[],"categories_sizes":[],"default_left":[0,0,0,0,0,0,0,0,0,0,0,0,0,0,0,0,0,0,0,0,0,0,0,0,0,0,0,0,0,0,0,0,0,0,0,0,0,0,0],"id":16,"left_children":[1,3,5,7,9,11,13,-1,15,17,19,21,23,25,27,-1,-1,-1,29,31,33,35,37,-1,-1,-1,-1,-1,-1,-1,-1,-1,-1,-1,-1,-1,-1,-1,-1],"loss_changes":[2.0610018E1,3.7512589E0,5.614833E0,5.0394154E-1,7.194023E-1,8.987062E-1,1.0050335E0,0E0,2.0274162E-2,8.8630676E-2,8.1183046E-2,1.3741404E-1,6.981492E-2,3.0709267E-2,1.5610981E-1,0E0,0E0,0E0,2.2176504E-3,8.525759E-3,1.0086268E-2,2.0008452E-2,6.793022E-3,0E0,0E0,0E0,0E0,0E0,0E0,0E0,0E0,0E0,0E0,0E0,0E0,0E0,0E0,0E0,0E0],"parents":[2147483647,0,0,1,1,2,2,3,3,4,4,5,5,6,6,8,8,9,9,10,10,11,11,12,12,13,13,14,14,18,18,19,19,20,20,21,21,22,22],"right_children":[2,4,6,8,10,12,14,-1,16,18,20,22,24,26,28,-1,-1,-1,30,32,34,36,38,-1,-1,-1,-1,-1,-1,-1,-1,-1,-1,-1,-1,-1,-1,-1,-1],"split_conditions":[4.585417E0,2.9520833E0,6.453472E0,1.8073611E0,3.80375E0,5.5034723E0,7.842222E0,-1.7910732E-2,2.4948611E0,3.4041667E0,4.2366667E0,5.065417E0,5.8570833E0,7.0702777E0,9.578889E0,-1.2761883E-2,-9.965756E-3,-7.682395E-3,3.6841667E0,4.07875E0,1.0187953E0,4.8058333E0,5.172222E0,5.760707E-3,8.347668E-3,1.145299E-2,1.5017276E-2,2.0132864E-2,3.1431593E-2,-5.741551E-3,-4.551915E-3,-3.5560715E-3,-2.390715E-3,-1.7083932E-3,-5.8143155E-4,5.684599E-4,1.7903721E-3,2.8204813E-3,4.058515E-3],"split_indices":[2,2,2,2,2,2,2,0,2,2,2,2,2,2,2,0,0,0,2,2,36,2,2,0,0,0,0,0,0,0,0,0,0,0,0,0,0,0,0],"split_type":[0,0,0,0,0,0,0,0,0,0,0,0,0,0,0,0,0,0,0,0,0,0,0,0,0,0,0,0,0,0,0,0,0,0,0,0,0,0,0],"sum_hessian":[1.017E3,5.17E2,5E2,1.43E2,3.74E2,3.8E2,1.2E2,5.3E1,9E1,1.93E2,1.81E2,2.4E2,1.4E2,7.9E1,4.1E1,4.1E1,4.9E1,9.2E1,1.01E2,9.3E1,8.8E1,1.42E2,9.8E1,5.6E1,8.4E1,4.9E1,3E1,3.3E1,8E0,6.4E1,3.7E1,5.6E1,3.7E1,3.1E1,5.7E1,5.7E1,8.5E1,2.7E1,7.1E1],"tree_param":{"num_deleted":"0","num_feature":"44","num_nodes":"39","size_leaf_vector":"1"}},{"base_weights":[4.3197856E-3,-1.1638772E-1,1.5598881E-1,-2.3584643E-1,-6.01797E-2,1.0123805E-1,3.602496E-1,-3.1544334E-1,-1.8374708E-1,-9.807284E-2,-1.5673447E-2,6.090325E-2,1.6373985E-1,3.1466126E-1,2.9272461E-2,-1.9177591E-2,-1.3851821E-2,-1.0206294E-2,-7.927267E-3,-1.1619957E-1,-7.382388E-2,-3.6751725E-2,6.455553E-4,3.8004562E-2,8.451017E-2,6.9290637E-3,9.5512E-3,1.2767061E-2,1.7888065E-2,-6.4174305E-3,-5.3243167E-3,-4.0991153E-3,-3.1437557E-3,-2.5292842E-3,-1.5083302E-3,-6.1405E-4,4.8735668E-4,1.1879712E-3,2.3475266E-3,3.4569632E-3,4.739962E-3],"categories":[],"categories_nodes":[],"categories_segments":[],"categories_sizes":[],"default_left":[0,0,0,0,0,0,0,0,0,0,0,0,0,0,0,0,0,0,0,0,0,0,0,0,0,0,0,0,0,0,0,0,0,0,0,0,0,0,0,0,0],"id":17,"left_children":[1,3,5,7,9,11,13,15,17,19,21,23,25,27,-1,-1,-1,-1,-1,29,31,33,35,37,39,-1,-1,-1,-1,-1,-1,-1,-1,-1,-1,-1,-1,-1,-1,-1,-1],"loss_changes":[1.8838358E1,3.8332362E0,5.063175E0,7.0092964E-1,6.5787697E-1,9.001074E-1,8.0136395E-1,7.94673E-2,2.5671482E-2,8.416772E-2,6.228346E-2,1.16253674E-1,7.031441E-2,1.1829758E-1,0E0,0E0,0E0,0E0,0E0,3.7539005E-4,3.1526089E-3,5.670771E-3,1.22378655E-2,1.3412237E-2,1.052618E-2,0E0,0E0,0E0,0E0,0E0,0E0,0E0,0E0,0E0,0E0,0E0,0E0,0E0,0E0,0E0,0E0],"parents":[2147483647,0,0,1,1,2,2,3,3,4,4,5,5,6,6,7,7,8,8,9,9,10,10,11,11,12,12,13,13,19,19,20,20,21,21,22,22,23,23,24,24],"right_children":[2,4,6,8,10,12,14,16,18,20,22,24,26,28,-1,-1,-1,-1,-1,30,32,34,36,38,40,-1,-1,-1,-1,-1,-1,-1,-1,-1,-1,-1,-1,-1,-1,-1,-1],"split_conditions":[4.7874913E0,3.2444444E0,6.841111E0,2.2831945E0,4.07875E0,5.7472224E0,9.191527E0,2.4163888E-1,2.8891666E0,3.7E0,4.413472E0,5.172222E0,6.2197223E0,7.593472E0,2.9272461E-2,-1.9177591E-2,-1.3851821E-2,-1.0206294E-2,-7.927267E-3,3.4248612E0,3.907361E0,1.4597944E0,1.069928E0,1.1212695E0,5.393472E0,6.9290637E-3,9.5512E-3,1.2767061E-2,1.7888065E-2,-6.4174305E-3,-5.3243167E-3,-4.0991153E-3,-3.1437557E-3,-2.5292842E-3,-1.5083302E-3,-6.1405E-4,4.8735668E-4,1.1879712E-3,2.3475266E-3,3.4569632E-3,4.739962E-3],"split_indices":[2,2,2,2,2,2,2,30,2,2,2,2,2,2,0,0,0,0,0,2,2,39,41,28,2,0,0,0,0,0,0,0,0,0,0,0,0,0,0,0,0],"split_type":[0,0,0,0,0,0,0,0,0,0,0,0,0,0,0,0,0,0,0,0,0,0,0,0,0,0,0,0,0,0,0,0,0,0,0,0,0,0,0,0,0],"sum_hessian":[1.027E3,5.72E2,4.55E2,1.82E2,3.9E2,3.6E2,9.5E1,7E1,1.12E2,2.1E2,1.8E2,2.2E2,1.4E2,8.1E1,1.4E1,2.2E1,4.8E1,5.8E1,5.4E1,1.18E2,9.2E1,7.8E1,1.02E2,1.13E2,1.07E2,7.6E1,6.4E1,3.7E1,4.4E1,4.7E1,7.1E1,4.9E1,4.3E1,2.3E1,5.5E1,4.2E1,6E1,4.5E1,6.8E1,4.6E1,6.1E1],"tree_param":{"num_deleted":"0","num_feature":"44","num_nodes":"41","size_leaf_vector":"1"}},{"base_weights":[-4.365685E-4,-1.1048524E-1,1.394731E-1,-2.2322425E-1,-5.6410573E-2,8.861684E-2,3.15604E-1,-2.9381567E-1,-1.693661E-1,-9.3852185E-2,-1.6930701E-2,5.2612677E-2,1.418775E-1,2.6477048E-1,2.3489045E-2,-1.8045748E-2,-1.3020435E-2,-9.337254E-3,-7.5117694E-3,-1.12548746E-1,-7.0274234E-2,-3.6506373E-2,-1.5099399E-3,3.519564E-2,7.532663E-2,5.842635E-3,8.213659E-3,1.07927425E-2,1.5035162E-2,-5.8733835E-3,-4.5974846E-3,-3.585849E-3,-1.8821022E-3,-2.3357957E-3,-1.4392011E-3,-4.0824997E-4,6.7052426E-4,1.2818815E-3,2.3086653E-3,3.2721683E-3,4.2097424E-3],"categories":[],"categories_nodes":[],"categories_segments":[],"categories_sizes":[],"default_left":[0,0,0,0,0,0,0,0,0,0,0,0,0,0,0,0,0,0,0,0,0,0,0,0,0,0,0,0,0,0,0,0,0,0,0,0,0,0,0,0,0],"id":18,"left_children":[1,3,5,7,9,11,13,15,17,19,21,23,25,27,-1,-1,-1,-1,-1,29,31,33,35,37,39,-1,-1,-1,-1,-1,-1,-1,-1,-1,-1,-1,-1,-1,-1,-1,-1],"loss_changes":[1.5981967E1,3.5293717E0,4.065545E0,6.64999E-1,5.8081794E-1,6.7520285E-1,6.750269E-1,8.534145E-2,8.183956E-3,8.113766E-2,5.8206137E-2,8.2009315E-2,6.0948372E-2,7.394791E-2,0E0,0E0,0E0,0E0,0E0,4.4596195E-4,1.6317666E-3,5.356863E-3,1.0932793E-2,1.1721954E-2,2.5535226E-3,0E0,0E0,0E0,0E0,0E0,0E0,0E0,0E0,0E0,0E0,0E0,0E0,0E0,0E0,0E0,0E0],"parents":[2147483647,0,0,1,1,2,2,3,3,4,4,5,5,6,6,7,7,8,8,9,9,10,10,11,11,12,12,13,13,19,19,20,20,21,21,22,22,23,23,24,24],"right_children":[2,4,6,8,10,12,14,16,18,20,22,24,26,28,-1,-1,-1,-1,-1,30,32,34,36,38,40,-1,-1,-1,-1,-1,-1,-1,-1,-1,-1,-1,-1,-1,-1,-1,-1],"split_conditions":[4.7619443E0,3.2444444E0,6.608333E0,2.3689656E0,4.0519443E0,5.636389E0,8.37E0,3.400861E-1,2.9520833E0,3.69125E0,4.4016666E0,5.172222E0,6.0441666E0,7.1931944E0,2.3489045E-2,-1.8045748E-2,-1.3020435E-2,-9.337254E-3,-7.5117694E-3,1.0460318E0,9.507694E-1,1.0340353E0,2.4150047E2,4.9844446E0,5.393472E0,5.842635E-3,8.213659E-3,1.07927425E-2,1.5035162E-2,-5.8733835E-3,-4.5974846E-3,-3.585849E-3,-1.8821022E-3,-2.3357957E-3,-1.4392011E-3,-4.0824997E-4,6.7052426E-4,1.2818815E-3,2.3086653E-3,3.2721683E-3,4.2097424E-3],"split_indices":[2,2,2,2,2,2,2,30,2,2,2,2,2,2,0,0,0,0,0,36,30,36,1,2,2,0,0,0,0,0,0,0,0,0,0,0,0,0,0,0,0],"split_type":[0,0,0,0,0,0,0,0,0,0,0,0,0,0,0,0,0,0,0,0,0,0,0,0,0,0,0,0,0,0,0,0,0,0,0,0,0,0,0,0,0],"sum_hessian":[1.036E3,5.8E2,4.56E2,1.87E2,3.93E2,3.55E2,1.01E2,7.9E1,1.08E2,2.01E2,1.92E2,2.13E2,1.42E2,7.8E1,2.3E1,2.3E1,5.6E1,5.2E1,5.6E1,1.1E2,9.1E1,8.4E1,1.08E2,1.22E2,9.1E1,7E1,7.2E1,3.6E1,4.2E1,8.5E1,2.5E1,8.6E1,5E0,3.4E1,5E1,7.5E1,3.3E1,6.7E1,5.5E1,4.7E1,4.4E1],"tree_param":{"num_deleted":"0","num_feature":"44","num_nodes":"41","size_leaf_vector":"1"}},{"base_weights":[-4.884862E-3,-1.12431824E-1,1.2973441E-1,-2.179885E-1,-6.1259802E-2,8.2918264E-2,3.244837E-1,-3.0418816E-1,-1.8189393E-1,-9.833417E-2,-2.5547482E-2,4.5411065E-2,1.3837622E-1,2.892648E-1,2.8689334E-2,-1.7530305E-2,-1.3201252E-2,-1.0437725E-2,-7.6984884E-3,-1.105273E-1,-7.465356E-2,-4.4225518E-2,-7.5281104E-3,2.669477E-2,6.9202475E-2,1.20982215E-1,8.640902E-3,1.11268E-2,1.6569106E-2,-6.1876816E-3,-5.0272746E-3,-3.7949912E-3,-1.7869197E-3,-2.6891984E-3,-1.6574154E-3,-8.4739225E-4,3.6254012E-6,8.7500486E-4,1.7463863E-3,2.7705834E-3,3.8506563E-3,5.1937825E-3,6.575533E-3],"categories":[],"categories_nodes":[],"categories_segments":[],"categories_sizes":[],"default_left":[0,0,0,0,0,0,0,0,0,0,0,0,0,0,0,0,0,0,0,0,0,0,0,0,0,0,0,0,0,0,0,0,0,0,0,0,0,0,0,0,0,0,0],"id":19,"left_children":[1,3,5,7,9,11,13,15,17,19,21,23,25,27,-1,-1,-1,-1,-1,29,31,33,35,37,39,41,-1,-1,-1,-1,-1,-1,-1,-1,-1,-1,-1,-1,-1,-1,-1,-1,-1],"loss_changes":[1.5028162E1,3.1033401E0,4.176221E0,5.29603E-1,5.138525E-1,7.695837E-1,6.1545944E-1,8.102894E-3,6.911564E-2,4.6898246E-2,6.698036E-2,9.7896904E-2,6.895447E-2,1.5109015E-1,0E0,0E0,0E0,0E0,0E0,3.927827E-3,5.853474E-4,8.59347E-3,7.3755966E-3,9.002581E-3,6.2886477E-3,4.889965E-3,0E0,0E0,0E0,0E0,0E0,0E0,0E0,0E0,0E0,0E0,0E0,0E0,0E0,0E0,0E0,0E0,0E0],"parents":[2147483647,0,0,1,1,2,2,3,3,4,4,5,5,6,6,7,7,8,8,9,9,10,10,11,11,12,12,13,13,19,19,20,20,21,21,22,22,23,23,24,24,25,25],"right_children":[2,4,6,8,10,12,14,16,18,20,22,24,26,28,-1,-1,-1,-1,-1,30,32,34,36,38,40,42,-1,-1,-1,-1,-1,-1,-1,-1,-1,-1,-1,-1,-1,-1,-1,-1,-1],"split_conditions":[4.7206945E0,3.2084723E0,6.7377777E0,1.8073611E0,3.9297223E0,5.6059766E0,9.578889E0,1.1706945E0,2.6583333E0,3.65E0,4.3333335E0,5.109028E0,6.2197223E0,7.593472E0,2.8689334E-2,-1.7530305E-2,-1.3201252E-2,-1.0437725E-2,-7.6984884E-3,3.3833504E0,9.1596806E-1,1.0282595E0,4.5005555E0,4.9030557E0,5.323889E0,5.8570833E0,8.640902E-3,1.11268E-2,1.6569106E-2,-6.1876816E-3,-5.0272746E-3,-3.7949912E-3,-1.7869197E-3,-2.6891984E-3,-1.6574154E-3,-8.4739225E-4,3.6254012E-6,8.7500486E-4,1.7463863E-3,2.7705834E-3,3.8506563E-3,5.1937825E-3,6.575533E-3],"split_indices":[2,2,2,2,2,2,2,2,2,2,2,2,2,2,0,0,0,0,0,2,34,28,2,2,2,2,0,0,0,0,0,0,0,0,0,0,0,0,0,0,0,0,0],"split_type":[0,0,0,0,0,0,0,0,0,0,0,0,0,0,0,0,0,0,0,0,0,0,0,0,0,0,0,0,0,0,0,0,0,0,0,0,0,0,0,0,0,0,0],"sum_hessian":[1.036E3,5.76E2,4.6E2,1.87E2,3.89E2,3.72E2,8.8E1,5.3E1,1.34E2,1.9E2,1.99E2,2.23E2,1.49E2,7.9E1,9E0,2.1E1,3.2E1,6.5E1,6.9E1,1.23E2,6.7E1,9.7E1,1.02E2,1.26E2,9.7E1,1.02E2,4.7E1,3.3E1,4.6E1,4.8E1,7.5E1,6.4E1,3E0,5E1,4.7E1,4.5E1,5.7E1,6.1E1,6.5E1,3.8E1,5.9E1,4.3E1,5.9E1],"tree_param":{"num_deleted":"0","num_feature":"44","num_nodes":"43","size_leaf_vector":"1"}},{"base_weights":[2.2304372E-3,-9.010966E-2,1.5088108E-1,-1.9176024E-1,-3.7899267E-2,1.0356141E-1,3.3047697E-1,-2.972758E-1,-1.5835689E-1,-7.672919E-2,-2.8201677E-3,6.24454E-2,1.4637475E-1,2.8085268E-1,2.5476722E-2,-1.6811147E-2,-1.25942305E-2,-9.650664E-3,-6.725376E-3,-9.1173485E-2,-5.568217E-2,-2.494525E-2,1.0755201E-2,3.9880965E-2,7.4841484E-2,6.196376E-3,8.895017E-3,1.1811751E-2,1.5808558E-2,-4.832587E-3,-3.7553832E-3,-2.9282416E-3,-1.7494978E-3,-9.3073136E-4,-2.0393762E-3,-7.857096E-5,8.633385E-4,1.3425077E-3,2.4396926E-3,3.1286657E-3,4.233891E-3],"categories":[],"categories_nodes":[],"categories_segments":[],"categories_sizes":[],"default_left":[0,0,0,0,0,0,0,0,0,0,0,0,0,0,0,0,0,0,0,0,0,0,0,0,0,0,0,0,0,0,0,0,0,0,0,0,0,0,0,0,0],"id":20,"left_children":[1,3,5,7,9,11,13,15,17,19,21,23,25,27,-1,-1,-1,-1,-1,29,31,33,35,37,39,-1,-1,-1,-1,-1,-1,-1,-1,-1,-1,-1,-1,-1,-1,-1,-1],"loss_changes":[1.4508691E1,3.4530377E0,3.4076347E0,7.318554E-1,5.882189E-1,5.5768085E-1,6.0328674E-1,7.2393417E-3,1.1454868E-1,5.7245255E-2,6.8749495E-2,4.3447196E-2,8.9056015E-2,3.2465458E-2,0E0,0E0,0E0,0E0,0E0,3.3022761E-3,3.0806065E-3,7.966105E-3,1.1424853E-2,5.77455E-3,7.4929E-3,0E0,0E0,0E0,0E0,0E0,0E0,0E0,0E0,0E0,0E0,0E0,0E0,0E0,0E0,0E0,0E0],"parents":[2147483647,0,0,1,1,2,2,3,3,4,4,5,5,6,6,7,7,8,8,9,9,10,10,11,11,12,12,13,13,19,19,20,20,21,21,22,22,23,23,24,24],"right_children":[2,4,6,8,10,12,14,16,18,20,22,24,26,28,-1,-1,-1,-1,-1,30,32,34,36,38,40,-1,-1,-1,-1,-1,-1,-1,-1,-1,-1,-1,-1,-1,-1,-1,-1],"split_conditions":[4.9505553E0,3.34375E0,7.0045834E0,1.8073611E0,4.1643057E0,5.7472224E0,9.191527E0,3.2816666E-1,2.7752779E0,3.7954166E0,4.484861E0,5.18375E0,6.329583E0,7.73125E0,2.5476722E-2,-1.6811147E-2,-1.25942305E-2,-9.650664E-3,-6.725376E-3,1.0562439E0,2.4241396E2,1.4328979E-1,1.0815189E0,2.4025606E2,5.413611E0,6.196376E-3,8.895017E-3,1.1811751E-2,1.5808558E-2,-4.832587E-3,-3.7553832E-3,-2.9282416E-3,-1.7494978E-3,-9.3073136E-4,-2.0393762E-3,-7.857096E-5,8.633385E-4,1.3425077E-3,2.4396926E-3,3.1286657E-3,4.233891E-3],"split_indices":[2,2,2,2,2,2,2,30,2,2,2,2,2,2,0,0,0,0,0,36,1,0,36,1,2,0,0,0,0,0,0,0,0,0,0,0,0,0,0,0,0],"split_type":[0,0,0,0,0,0,0,0,0,0,0,0,0,0,0,0,0,0,0,0,0,0,0,0,0,0,0,0,0,0,0,0,0,0,0,0,0,0,0,0,0],"sum_hessian":[1.055E3,6.51E2,4.04E2,2.2E2,4.31E2,3.21E2,8.3E1,5.1E1,1.69E2,2.04E2,2.27E2,1.65E2,1.56E2,6.7E1,1.6E1,2.4E1,2.7E1,6.6E1,1.03E2,1.19E2,8.5E1,8.6E1,1.41E2,6E1,1.05E2,9.4E1,6.2E1,3.3E1,3.4E1,8.5E1,3.4E1,7.3E1,1.2E1,6.3E1,2.3E1,4.9E1,9.2E1,2.6E1,3.4E1,5E1,5.5E1],"tree_param":{"num_deleted":"0","num_feature":"44","num_nodes":"41","size_leaf_vector":"1"}},{"base_weights":[5.060591E-3,-9.4313644E-2,1.2921351E-1,-2.1335502E-1,-5.4139305E-2,8.5646495E-2,3.078548E-1,-2.6925296E-1,-1.7299485E-1,-9.412337E-2,-1.6935641E-2,5.032702E-2,1.364357E-1,2.689704E-1,2.5873998E-2,-1.5903005E-2,-1.2003394E-2,-9.707236E-3,-7.4470337E-3,-1.131716E-1,-7.6124296E-2,-3.7331857E-2,1.2221475E-3,3.306101E-2,6.978652E-2,5.739452E-3,8.259692E-3,1.1199474E-2,1.5305127E-2,-6.0345326E-3,-4.8655104E-3,-4.1293255E-3,-3.2067325E-3,-2.3681968E-3,-1.376443E-3,-4.2740465E-4,5.098787E-4,1.4212086E-4,1.8211723E-3,2.2751677E-3,3.6547538E-3],"categories":[],"categories_nodes":[],"categories_segments":[],"categories_sizes":[],"default_left":[0,0,0,0,0,0,0,0,0,0,0,0,0,0,0,0,0,0,0,0,0,0,0,0,0,0,0,0,0,0,0,0,0,0,0,0,0,0,0,0,0],"id":21,"left_children":[1,3,5,7,9,11,13,15,17,19,21,23,25,27,-1,-1,-1,-1,-1,29,31,33,35,37,39,-1,-1,-1,-1,-1,-1,-1,-1,-1,-1,-1,-1,-1,-1,-1,-1],"loss_changes":[1.27939415E1,2.7431164E0,3.561535E0,2.805481E-1,6.4102924E-1,6.60445E-1,5.944166E-1,7.6856613E-3,1.534462E-2,6.269765E-2,8.33744E-2,7.1946144E-2,7.566023E-2,6.171465E-2,0E0,0E0,0E0,0E0,0E0,6.258488E-5,3.226161E-3,9.120643E-3,1.0610218E-2,1.1987835E-2,4.9491525E-3,0E0,0E0,0E0,0E0,0E0,0E0,0E0,0E0,0E0,0E0,0E0,0E0,0E0,0E0,0E0,0E0],"parents":[2147483647,0,0,1,1,2,2,3,3,4,4,5,5,6,6,7,7,8,8,9,9,10,10,11,11,12,12,13,13,19,19,20,20,21,21,22,22,23,23,24,24],"right_children":[2,4,6,8,10,12,14,16,18,20,22,24,26,28,-1,-1,-1,-1,-1,30,32,34,36,38,40,-1,-1,-1,-1,-1,-1,-1,-1,-1,-1,-1,-1,-1,-1,-1,-1],"split_conditions":[4.8058333E0,3.0386112E0,6.935E0,2.0072222E0,3.948611E0,5.713333E0,9.578889E0,1.1706945E0,2.5322223E0,3.4886112E0,4.4016666E0,5.18375E0,6.2775E0,7.73125E0,2.5873998E-2,-1.5903005E-2,-1.2003394E-2,-9.707236E-3,-7.4470337E-3,3.34375E0,3.74E0,4.1643057E0,1.1351433E0,2.361056E2,-5E-1,5.739452E-3,8.259692E-3,1.1199474E-2,1.5305127E-2,-6.0345326E-3,-4.8655104E-3,-4.1293255E-3,-3.2067325E-3,-2.3681968E-3,-1.376443E-3,-4.2740465E-4,5.098787E-4,1.4212086E-4,1.8211723E-3,2.2751677E-3,3.6547538E-3],"split_indices":[2,2,2,2,2,2,2,2,2,2,2,2,2,2,0,0,0,0,0,2,2,2,40,1,19,0,0,0,0,0,0,0,0,0,0,0,0,0,0,0,0],"split_type":[0,0,0,0,0,0,0,0,0,0,0,0,0,0,0,0,0,0,0,0,0,0,0,0,0,0,0,0,0,0,0,0,0,0,0,0,0,0,0,0,0],"sum_hessian":[1.035E3,5.75E2,4.6E2,1.44E2,4.31E2,3.71E2,8.9E1,5.8E1,8.6E1,2.07E2,2.24E2,2.2E2,1.51E2,7.7E1,1.2E1,1.8E1,4E1,4.2E1,4.4E1,9.8E1,1.09E2,1.05E2,1.19E2,1.18E2,1.02E2,8.9E1,6.2E1,3.8E1,3.9E1,6.2E1,3.6E1,6.7E1,4.2E1,5E1,5.5E1,5.7E1,6.2E1,1.2E1,1.06E2,1.4E1,8.8E1],"tree_param":{"num_deleted":"0","num_feature":"44","num_nodes":"41","size_leaf_vector":"1"}},{"base_weights":[-1.8309033E-3,-1.0265746E-1,1.03868224E-1,-2.0371553E-1,-6.4256504E-2,6.451828E-2,2.7639222E-1,-1.356076E-2,-1.6995329E-1,-9.6871525E-2,-3.198629E-2,3.5091322E-2,1.1781531E-1,2.439079E-1,2.4671083E-2,-9.5895035E-3,-7.347394E-3,-5.822129E-3,-8.19353E-2,-4.716773E-2,-1.4256564E-2,1.4896523E-2,5.3275764E-2,9.837886E-2,7.062173E-3,9.9474145E-3,1.4418875E-2,-4.424042E-3,-3.461554E-3,-2.7395044E-3,-1.9160801E-3,-1.3010396E-3,-3.970385E-4,3.197867E-4,1.2376348E-3,2.16775E-3,3.2725092E-3,3.9320407E-3,5.237023E-3],"categories":[],"categories_nodes":[],"categories_segments":[],"categories_sizes":[],"default_left":[0,0,0,0,0,0,0,0,0,0,0,0,0,0,0,0,0,0,0,0,0,0,0,0,0,0,0,0,0,0,0,0,0,0,0,0,0,0,0],"id":22,"left_children":[1,3,5,7,9,11,13,-1,15,17,19,21,23,25,-1,-1,-1,-1,27,29,31,33,35,37,-1,-1,-1,-1,-1,-1,-1,-1,-1,-1,-1,-1,-1,-1,-1],"loss_changes":[1.0849115E1,2.0087686E0,3.3562064E0,2.7979422E-1,3.9579666E-1,6.326238E-1,5.2825594E-1,0E0,2.1048784E-2,4.5414925E-2,5.1006824E-2,9.578818E-2,5.1676393E-2,1.0657358E-1,0E0,0E0,0E0,0E0,3.0215383E-3,4.845485E-3,6.4804126E-3,1.039863E-2,1.3829976E-2,2.0594597E-3,0E0,0E0,0E0,0E0,0E0,0E0,0E0,0E0,0E0,0E0,0E0,0E0,0E0,0E0,0E0],"parents":[2147483647,0,0,1,1,2,2,3,3,4,4,5,5,6,6,8,8,9,9,10,10,11,11,12,12,13,13,18,18,19,19,20,20,21,21,22,22,23,23],"right_children":[2,4,6,8,10,12,14,-1,16,18,20,22,24,26,-1,-1,-1,-1,28,30,32,34,36,38,-1,-1,-1,-1,-1,-1,-1,-1,-1,-1,-1,-1,-1,-1,-1],"split_conditions":[4.585417E0,2.9727778E0,6.7377777E0,1.6897222E0,3.80375E0,5.55E0,9.578889E0,-1.356076E-2,2.4948611E0,3.34375E0,4.2366667E0,4.9844446E0,6.1356945E0,7.6626387E0,2.4671083E-2,-9.5895035E-3,-7.347394E-3,-5.822129E-3,3.65E0,4.024722E0,1.0187953E0,2.4120229E2,5.2881947E0,5.713333E0,7.062173E-3,9.9474145E-3,1.4418875E-2,-4.424042E-3,-3.461554E-3,-2.7395044E-3,-1.9160801E-3,-1.3010396E-3,-3.970385E-4,3.197867E-4,1.2376348E-3,2.16775E-3,3.2725092E-3,3.9320407E-3,5.237023E-3],"split_indices":[2,2,2,2,2,2,2,0,2,2,2,2,2,2,0,0,0,0,2,2,36,1,2,2,0,0,0,0,0,0,0,0,0,0,0,0,0,0,0],"split_type":[0,0,0,0,0,0,0,0,0,0,0,0,0,0,0,0,0,0,0,0,0,0,0,0,0,0,0,0,0,0,0,0,0,0,0,0,0,0,0],"sum_hessian":[1.016E3,5.2E2,4.96E2,1.42E2,3.78E2,4.05E2,9.1E1,4.5E1,9.7E1,1.87E2,1.91E2,2.62E2,1.43E2,8.1E1,1E1,4.6E1,5.1E1,7.8E1,1.09E2,1.02E2,8.9E1,1.25E2,1.37E2,8.1E1,6.2E1,4.3E1,3.8E1,6.8E1,4.1E1,5.2E1,5E1,3E1,5.9E1,6.8E1,5.7E1,7.8E1,5.9E1,2.3E1,5.8E1],"tree_param":{"num_deleted":"0","num_feature":"44","num_nodes":"39","size_leaf_vector":"1"}},{"base_weights":[6.5550336E-4,-8.249058E-2,1.19984016E-1,-1.7170733E-1,-3.8965482E-2,8.571156E-2,2.959971E-1,-2.3654915E-1,-1.3655333E-1,-7.2328545E-2,-8.025391E-3,5.2191563E-2,1.2887238E-1,2.47564E-1,2.2199303E-2,-1.4464636E-2,-1.0483294E-2,-7.7037564E-3,-5.864054E-3,-8.6425394E-2,-5.693153E-2,-2.4988916E-2,5.5277837E-3,3.7735946E-2,6.969378E-2,1.0706012E-1,1.5476407E-1,1.021579E-2,1.3722782E-2,-4.3826886E-3,-2.2409183E-3,-2.592091E-3,-3.4961705E-3,-1.7473532E-3,-9.1328035E-4,-4.2961538E-4,5.216173E-4,9.823716E-4,2.194449E-3,2.999232E-3,3.9681345E-3,3.1522948E-3,5.4741143E-3,3.57814E-3,7.87107E-3],"categories":[],"categories_nodes":[],"categories_segments":[],"categories_sizes":[],"default_left":[0,0,0,0,0,0,0,0,0,0,0,0,0,0,0,0,0,0,0,0,0,0,0,0,0,0,0,0,0,0,0,0,0,0,0,0,0,0,0,0,0,0,0,0,0],"id":23,"left_children":[1,3,5,7,9,11,13,15,17,19,21,23,25,27,-1,-1,-1,-1,-1,29,31,33,35,37,39,41,43,-1,-1,-1,-1,-1,-1,-1,-1,-1,-1,-1,-1,-1,-1,-1,-1,-1,-1],"loss_changes":[1.0437603E1,2.4008727E0,2.5806265E0,4.304266E-1,4.309026E-1,5.184443E-1,3.9181423E-1,3.859973E-2,2.717948E-2,3.870666E-2,5.025843E-2,4.948914E-2,7.266259E-2,7.890224E-3,0E0,0E0,0E0,0E0,0E0,1.3357401E-3,2.9214025E-3,5.855985E-3,8.538487E-3,1.1937112E-2,3.8761497E-3,2.585888E-3,4.210949E-3,0E0,0E0,0E0,0E0,0E0,0E0,0E0,0E0,0E0,0E0,0E0,0E0,0E0,0E0,0E0,0E0,0E0,0E0],"parents":[2147483647,0,0,1,1,2,2,3,3,4,4,5,5,6,6,7,7,8,8,9,9,10,10,11,11,12,12,13,13,19,19,20,20,21,21,22,22,23,23,24,24,25,25,26,26],"right_children":[2,4,6,8,10,12,14,16,18,20,22,24,26,28,-1,-1,-1,-1,-1,30,32,34,36,38,40,42,44,-1,-1,-1,-1,-1,-1,-1,-1,-1,-1,-1,-1,-1,-1,-1,-1,-1,-1],"split_conditions":[4.879028E0,3.26875E0,7.1931944E0,2.2255557E0,4.07875E0,5.7693057E0,9.191527E0,1.1706945E0,2.8640277E0,3.6841667E0,4.4503126E0,5.323889E0,6.329583E0,7.73125E0,2.2199303E-2,-1.4464636E-2,-1.0483294E-2,-7.7037564E-3,-5.864054E-3,1.3083608E0,1.4480972E-1,1.0268478E0,1.0524169E0,2.4004901E2,2.4140132E2,1.4043639E0,2.3707639E2,1.021579E-2,1.3722782E-2,-4.3826886E-3,-2.2409183E-3,-2.592091E-3,-3.4961705E-3,-1.7473532E-3,-9.1328035E-4,-4.2961538E-4,5.216173E-4,9.823716E-4,2.194449E-3,2.999232E-3,3.9681345E-3,3.1522948E-3,5.4741143E-3,3.57814E-3,7.87107E-3],"split_indices":[2,2,2,2,2,2,2,2,2,2,2,2,2,2,0,0,0,0,0,36,0,28,40,1,1,31,1,0,0,0,0,0,0,0,0,0,0,0,0,0,0,0,0,0,0],"split_type":[0,0,0,0,0,0,0,0,0,0,0,0,0,0,0,0,0,0,0,0,0,0,0,0,0,0,0,0,0,0,0,0,0,0,0,0,0,0,0,0,0,0,0,0,0],"sum_hessian":[1.05E3,6.19E2,4.31E2,2.02E2,4.17E2,3.62E2,6.9E1,6.9E1,1.33E2,2E2,2.17E2,2.05E2,1.57E2,5.4E1,1.5E1,2E1,4.9E1,6.6E1,6.7E1,1.02E2,9.8E1,9.6E1,1.21E2,1.14E2,9.1E1,8.8E1,6.9E1,2.4E1,3E1,9.8E1,4E0,7.4E1,2.4E1,3.7E1,5.9E1,3.1E1,9E1,3E1,8.4E1,4.9E1,4.2E1,6E0,8.2E1,3E0,6.6E1],"tree_param":{"num_deleted":"0","num_feature":"44","num_nodes":"45","size_leaf_vector":"1"}},{"base_weights":[3.4606655E-4,-8.854066E-2,9.991297E-2,-1.7937262E-1,-5.212147E-2,6.1515577E-2,2.3080932E-1,-2.3660573E-1,-1.4345215E-1,-8.131541E-2,-2.0348424E-2,3.2988217E-2,1.0029217E-1,1.916146E-1,3.5157612E-1,-1.3486752E-2,-1.0116503E-2,-8.33224E-3,-6.3461773E-3,-9.7416386E-2,-6.6524416E-2,-3.3525895E-2,-7.6356367E-3,1.9024896E-2,4.9389936E-2,7.965895E-2,1.152885E-1,8.056579E-3,1.0852498E-2,1.3113514E-2,1.9979117E-2,-5.0469358E-3,-3.583328E-3,-3.5520885E-3,-2.3688576E-3,-2.0434686E-3,-1.2392323E-3,3.880519E-5,-8.031608E-4,3.9604268E-4,1.32359E-3,1.5797297E-3,2.6563974E-3,1.8394188E-3,4.050465E-3,5.848398E-3,3.150419E-3],"categories":[],"categories_nodes":[],"categories_segments":[],"categories_sizes":[],"default_left":[0,0,0,0,0,0,0,0,0,0,0,0,0,0,0,0,0,0,0,0,0,0,0,0,0,0,0,0,0,0,0,0,0,0,0,0,0,0,0,0,0,0,0,0,0,0,0],"id":24,"left_children":[1,3,5,7,9,11,13,15,17,19,21,23,25,27,29,-1,-1,-1,-1,31,33,35,37,39,41,43,45,-1,-1,-1,-1,-1,-1,-1,-1,-1,-1,-1,-1,-1,-1,-1,-1,-1,-1,-1,-1],"loss_changes":[9.213029E0,1.8100653E0,2.4536061E0,2.888255E-1,3.6381197E-1,4.1815126E-1,4.580431E-1,1.2420654E-2,1.6799688E-2,4.234016E-2,3.157326E-2,4.9674347E-2,4.063344E-2,3.1706095E-2,6.6695213E-3,0E0,0E0,0E0,0E0,1.473248E-3,6.148696E-3,4.9568415E-3,6.959746E-3,9.795904E-3,5.0398707E-3,1.1299849E-3,6.200075E-4,0E0,0E0,0E0,0E0,0E0,0E0,0E0,0E0,0E0,0E0,0E0,0E0,0E0,0E0,0E0,0E0,0E0,0E0,0E0,0E0],"parents":[2147483647,0,0,1,1,2,2,3,3,4,4,5,5,6,6,7,7,8,8,9,9,10,10,11,11,12,12,13,13,14,14,19,19,20,20,21,21,22,22,23,23,24,24,25,25,26,26],"right_children":[2,4,6,8,10,12,14,16,18,20,22,24,26,28,30,-1,-1,-1,-1,32,34,36,38,40,42,44,46,-1,-1,-1,-1,-1,-1,-1,-1,-1,-1,-1,-1,-1,-1,-1,-1,-1,-1,-1,-1],"split_conditions":[4.6768055E0,3.0386112E0,6.549722E0,2.0072222E0,3.9297223E0,5.5034723E0,8.37E0,3.400861E-1,2.5322223E0,3.452361E0,4.3333335E0,5.065417E0,5.946111E0,7.1931944E0,2.1904125E0,-1.3486752E-2,-1.0116503E-2,-8.33224E-3,-6.3461773E-3,-4.7321387E-2,-8.1676394E-2,1.0418001E0,6.81E2,-1.159346E-1,2.3994565E2,1.0160286E0,1.9663194E-1,8.056579E-3,1.0852498E-2,1.3113514E-2,1.9979117E-2,-5.0469358E-3,-3.583328E-3,-3.5520885E-3,-2.3688576E-3,-2.0434686E-3,-1.2392323E-3,3.880519E-5,-8.031608E-4,3.9604268E-4,1.32359E-3,1.5797297E-3,2.6563974E-3,1.8394188E-3,4.050465E-3,5.848398E-3,3.150419E-3],"split_indices":[2,2,2,2,2,2,2,30,2,2,2,2,2,2,31,0,0,0,0,21,21,41,4,21,1,36,0,0,0,0,0,0,0,0,0,0,0,0,0,0,0,0,0,0,0,0,0],"split_type":[0,0,0,0,0,0,0,0,0,0,0,0,0,0,0,0,0,0,0,0,0,0,0,0,0,0,0,0,0,0,0,0,0,0,0,0,0,0,0,0,0,0,0,0,0,0,0],"sum_hessian":[1.039E3,5.49E2,4.9E2,1.56E2,3.93E2,3.8E2,1.1E2,5.8E1,9.8E1,2.04E2,1.89E2,2.2E2,1.6E2,8.5E1,2.5E1,2.6E1,3.2E1,3.7E1,6.1E1,9.5E1,1.09E2,9.2E1,9.7E1,1.2E2,1E2,7E1,9E1,4.2E1,4.3E1,1.1E1,1.4E1,8.1E1,1.4E1,8.6E1,2.3E1,4.8E1,4.4E1,4.9E1,4.8E1,4.9E1,7.1E1,1.9E1,8.1E1,3E0,6.7E1,8.6E1,4E0],"tree_param":{"num_deleted":"0","num_feature":"44","num_nodes":"47","size_leaf_vector":"1"}},{"base_weights":[-2.0063976E-3,-8.566989E-2,9.286155E-2,-1.7241232E-1,-4.9839444E-2,5.7450786E-2,2.2803956E-1,-1.1704697E-2,-1.4384659E-1,-7.658869E-2,-2.1737207E-2,2.8901748E-2,9.696468E-2,1.9569552E-1,3.782482E-1,-8.291422E-3,-6.204109E-3,-9.0917E-2,-6.2349718E-2,-3.3031948E-2,-7.33647E-3,1.6915116E-2,4.563115E-2,7.9498015E-2,1.1475162E-1,8.011283E-3,1.1535896E-2,1.4597932E-2,2.4389302E-2,-2.5395057E-3,-4.6255547E-3,-3.4010396E-3,-2.5504201E-3,-2.0596636E-3,-1.2286121E-3,-1.0318009E-3,-1.3960646E-4,3.4519177E-4,1.1361443E-3,1.434104E-3,2.461039E-3,3.2830704E-3,4.3051494E-3,2.7344914E-3,5.820144E-3],"categories":[],"categories_nodes":[],"categories_segments":[],"categories_sizes":[],"default_left":[0,0,0,0,0,0,0,0,0,0,0,0,0,0,0,0,0,0,0,0,0,0,0,0,0,0,0,0,0,0,0,0,0,0,0,0,0,0,0,0,0,0,0,0,0],"id":25,"left_children":[1,3,5,7,9,11,13,-1,15,17,19,21,23,25,27,-1,-1,29,31,33,35,37,39,41,43,-1,-1,-1,-1,-1,-1,-1,-1,-1,-1,-1,-1,-1,-1,-1,-1,-1,-1,-1,-1],"loss_changes":[8.349726E0,1.7287898E0,2.3467698E0,2.5352907E-1,2.9676545E-1,4.394064E-1,4.2153025E-1,0E0,2.8951883E-2,3.5747528E-2,3.1474918E-2,4.5149297E-2,4.182875E-2,6.98657E-2,1.8270254E-2,0E0,0E0,1.6340017E-3,3.2837093E-3,6.513402E-3,5.200459E-3,7.6924562E-3,4.3681264E-3,2.205968E-3,1.4690161E-3,0E0,0E0,0E0,0E0,0E0,0E0,0E0,0E0,0E0,0E0,0E0,0E0,0E0,0E0,0E0,0E0,0E0,0E0,0E0,0E0],"parents":[2147483647,0,0,1,1,2,2,3,3,4,4,5,5,6,6,8,8,9,9,10,10,11,11,12,12,13,13,14,14,17,17,18,18,19,19,20,20,21,21,22,22,23,23,24,24],"right_children":[2,4,6,8,10,12,14,-1,16,18,20,22,24,26,28,-1,-1,30,32,34,36,38,40,42,44,-1,-1,-1,-1,-1,-1,-1,-1,-1,-1,-1,-1,-1,-1,-1,-1,-1,-1,-1,-1],"split_conditions":[4.6454167E0,3.0386112E0,6.608333E0,1.6513889E0,3.9297223E0,5.521528E0,9.030556E0,-1.1704697E-2,2.4948611E0,3.4886112E0,4.37625E0,5.065417E0,6.024028E0,7.4075E0,1.0121528E1,-8.291422E-3,-6.204109E-3,1.3E1,1.0460318E0,-3.6572254E-1,7.1438473E-1,1.1212695E0,1.0412899E0,5.713333E0,-8.287701E-1,8.011283E-3,1.1535896E-2,1.4597932E-2,2.4389302E-2,-2.5395057E-3,-4.6255547E-3,-3.4010396E-3,-2.5504201E-3,-2.0596636E-3,-1.2286121E-3,-1.0318009E-3,-1.3960646E-4,3.4519177E-4,1.1361443E-3,1.434104E-3,2.461039E-3,3.2830704E-3,4.3051494E-3,2.7344914E-3,5.820144E-3],"split_indices":[2,2,2,2,2,2,2,0,2,2,2,2,2,2,2,0,0,12,36,21,30,28,36,2,21,0,0,0,0,0,0,0,0,0,0,0,0,0,0,0,0,0,0,0,0],"split_type":[0,0,0,0,0,0,0,0,0,0,0,0,0,0,0,0,0,0,0,0,0,0,0,0,0,0,0,0,0,0,0,0,0,0,0,0,0,0,0,0,0,0,0,0,0],"sum_hessian":[1.05E3,5.58E2,4.92E2,1.62E2,3.96E2,3.91E2,1.01E2,4.9E1,1.13E2,2.02E2,1.94E2,2.28E2,1.63E2,8.5E1,1.6E1,5E1,6.3E1,9.8E1,1.04E2,1.08E2,8.6E1,1.34E2,9.4E1,8.5E1,7.8E1,4.5E1,4E1,1.1E1,5E0,5E0,9.3E1,6.6E1,3.8E1,5.3E1,5.5E1,2.1E1,6.5E1,5E1,8.4E1,1.8E1,7.6E1,3.1E1,5.4E1,3E0,7.5E1],"tree_param":{"num_deleted":"0","num_feature":"44","num_nodes":"45","size_leaf_vector":"1"}},{"base_weights":[2.7672106E-3,-8.1594855E-2,8.646994E-2,-1.5320325E-1,-4.491883E-2,5.1579215E-2,1.9994316E-1,-2.1577208E-1,-1.2673837E-1,-7.039174E-2,-2.1340169E-2,2.5751105E-2,8.472325E-2,1.6329496E-1,3.0107358E-1,-1.2476852E-2,-9.135844E-3,-7.5312713E-3,-5.609901E-3,-8.047258E-2,-5.686093E-2,-3.6160663E-2,-9.942932E-3,1.14712315E-2,3.7595987E-2,3.2914807E-3,9.9901624E-2,6.991695E-3,9.424771E-3,1.3191827E-2,2.2096947E-2,-4.2235777E-3,-3.0436355E-3,-3.0705945E-3,-2.0347207E-3,-2.0477262E-3,-1.4935619E-3,-8.746925E-4,-1.5861307E-4,8.480331E-5,7.6395593E-4,1.1476096E-3,2.185016E-3,2.2150546E-3,5.062389E-3],"categories":[],"categories_nodes":[],"categories_segments":[],"categories_sizes":[],"default_left":[0,0,0,0,0,0,0,0,0,0,0,0,0,0,0,0,0,0,0,0,0,0,0,0,0,0,0,0,0,0,0,0,0,0,0,0,0,0,0,0,0,0,0,0,0],"id":26,"left_children":[1,3,5,7,9,11,13,15,17,19,21,23,25,27,29,-1,-1,-1,-1,31,33,35,37,39,41,-1,43,-1,-1,-1,-1,-1,-1,-1,-1,-1,-1,-1,-1,-1,-1,-1,-1,-1,-1],"loss_changes":[7.259047E0,1.3377893E0,2.032615E0,2.5912046E-1,2.0270765E-1,3.368132E-1,3.9929247E-1,1.02107525E-2,2.6168466E-2,1.7657816E-2,2.9706918E-2,3.7456855E-2,4.3035388E-2,2.7443886E-2,4.600811E-2,0E0,0E0,0E0,0E0,1.9904375E-3,2.871722E-3,1.0982379E-3,5.159232E-3,3.808028E-3,9.902641E-3,0E0,2.550304E-3,0E0,0E0,0E0,0E0,0E0,0E0,0E0,0E0,0E0,0E0,0E0,0E0,0E0,0E0,0E0,0E0,0E0,0E0],"parents":[2147483647,0,0,1,1,2,2,3,3,4,4,5,5,6,6,7,7,8,8,9,9,10,10,11,11,12,12,13,13,14,14,19,19,20,20,21,21,22,22,23,23,24,24,26,26],"right_children":[2,4,6,8,10,12,14,16,18,20,22,24,26,28,30,-1,-1,-1,-1,32,34,36,38,40,42,-1,44,-1,-1,-1,-1,-1,-1,-1,-1,-1,-1,-1,-1,-1,-1,-1,-1,-1,-1],"split_conditions":[4.6058335E0,3.2084723E0,6.453472E0,1.8073611E0,3.872639E0,5.408056E0,8.045555E0,1.4622222E0,2.5607789E0,3.6043055E0,4.2366667E0,4.9505553E0,5.8570833E0,7.0702777E0,1.0121528E1,-1.2476852E-2,-9.135844E-3,-7.5312713E-3,-5.609901E-3,1.0498121E0,6.123234E-17,7.945597E-1,4.413472E0,1.0595976E0,1.0650926E0,3.2914807E-3,1.3977473E0,6.991695E-3,9.424771E-3,1.3191827E-2,2.2096947E-2,-4.2235777E-3,-3.0436355E-3,-3.0705945E-3,-2.0347207E-3,-2.0477262E-3,-1.4935619E-3,-8.746925E-4,-1.5861307E-4,8.480331E-5,7.6395593E-4,1.1476096E-3,2.185016E-3,2.2150546E-3,5.062389E-3],"split_indices":[2,2,2,2,2,2,2,2,2,2,2,2,2,2,2,0,0,0,0,36,19,30,2,36,41,0,31,0,0,0,0,0,0,0,0,0,0,0,0,0,0,0,0,0,0],"split_type":[0,0,0,0,0,0,0,0,0,0,0,0,0,0,0,0,0,0,0,0,0,0,0,0,0,0,0,0,0,0,0,0,0,0,0,0,0,0,0,0,0,0,0,0,0],"sum_hessian":[1.026E3,5.11E2,5.15E2,1.72E2,3.39E2,3.95E2,1.2E2,4.9E1,1.23E2,1.62E2,1.77E2,2.23E2,1.72E2,9E1,3E1,2.1E1,2.8E1,4.3E1,8E1,9E1,7.2E1,7.6E1,1.01E2,1.02E2,1.21E2,7.9E1,9.3E1,5E1,4E1,2.6E1,4E0,7.2E1,1.8E1,5.4E1,1.8E1,4E1,3.6E1,4.7E1,5.4E1,2.9E1,7.3E1,3.7E1,8.4E1,3E0,9E1],"tree_param":{"num_deleted":"0","num_feature":"44","num_nodes":"45","size_leaf_vector":"1"}},{"base_weights":[-1.2632154E-3,-7.7997856E-2,8.496854E-2,-1.6342165E-1,-4.815902E-2,5.5436064E-2,2.2025506E-1,-1.0836731E-2,-1.3832973E-1,-7.448335E-2,-2.1982834E-2,3.067873E-2,9.704164E-2,1.925769E-1,1.9824764E-2,-7.710825E-3,-5.895311E-3,-4.4544223E-3,-6.1312474E-2,-3.5308704E-2,-9.555587E-3,1.6621709E-2,4.723689E-2,8.204067E-2,5.7813455E-3,8.188812E-3,1.17796315E-2,-3.2496944E-3,-2.3726004E-3,-1.9661107E-3,-1.2063294E-3,-1.1504687E-3,-2.7430858E-4,5.8454985E-4,1.454561E-3,1.9697067E-3,2.8141378E-3,2.203996E-3,4.166951E-3],"categories":[],"categories_nodes":[],"categories_segments":[],"categories_sizes":[],"default_left":[0,0,0,0,0,0,0,0,0,0,0,0,0,0,0,0,0,0,0,0,0,0,0,0,0,0,0,0,0,0,0,0,0,0,0,0,0,0,0],"id":27,"left_children":[1,3,5,7,9,11,13,-1,15,17,19,21,23,25,-1,-1,-1,-1,27,29,31,33,35,37,-1,-1,-1,-1,-1,-1,-1,-1,-1,-1,-1,-1,-1,-1,-1],"loss_changes":[6.92797E0,1.4042461E0,1.9574952E0,1.6131377E-1,2.8225976E-1,4.1522026E-1,3.529091E-1,0E0,1.4263034E-2,3.3971906E-2,3.4108214E-2,5.8800966E-2,3.2612324E-2,5.804825E-2,0E0,0E0,0E0,0E0,2.5798082E-3,3.5392344E-3,5.8414126E-3,8.267596E-3,6.0833097E-3,6.143451E-4,0E0,0E0,0E0,0E0,0E0,0E0,0E0,0E0,0E0,0E0,0E0,0E0,0E0,0E0,0E0],"parents":[2147483647,0,0,1,1,2,2,3,3,4,4,5,5,6,6,8,8,9,9,10,10,11,11,12,12,13,13,18,18,19,19,20,20,21,21,22,22,23,23],"right_children":[2,4,6,8,10,12,14,-1,16,18,20,22,24,26,-1,-1,-1,-1,28,30,32,34,36,38,-1,-1,-1,-1,-1,-1,-1,-1,-1,-1,-1,-1,-1,-1,-1],"split_conditions":[4.6454167E0,2.9520833E0,6.841111E0,1.6009722E0,3.80375E0,5.682639E0,9.578889E0,-1.0836731E-2,2.4368055E0,3.3976388E0,4.2366667E0,5.0806947E0,6.179861E0,7.842222E0,1.9824764E-2,-7.710825E-3,-5.895311E-3,-4.4544223E-3,-9.882014E-2,2.416697E2,-6.584016E-1,2.4206659E2,2.4144002E2,-8.660254E-1,5.7813455E-3,8.188812E-3,1.17796315E-2,-3.2496944E-3,-2.3726004E-3,-1.9661107E-3,-1.2063294E-3,-1.1504687E-3,-2.7430858E-4,5.8454985E-4,1.454561E-3,1.9697067E-3,2.8141378E-3,2.203996E-3,4.166951E-3],"split_indices":[2,2,2,2,2,2,2,0,2,2,2,2,2,2,0,0,0,0,21,1,21,1,1,19,0,0,0,0,0,0,0,0,0,0,0,0,0,0,0],"split_type":[0,0,0,0,0,0,0,0,0,0,0,0,0,0,0,0,0,0,0,0,0,0,0,0,0,0,0,0,0,0,0,0,0,0,0,0,0,0,0],"sum_hessian":[1.045E3,5.53E2,4.92E2,1.42E2,4.11E2,4.05E2,8.7E1,4.3E1,9.9E1,2.04E2,2.07E2,2.55E2,1.5E2,7.7E1,1E1,5.2E1,4.7E1,9.4E1,1.1E2,9.9E1,1.08E2,1.39E2,1.16E2,8.6E1,6.4E1,4.9E1,2.8E1,8.4E1,2.6E1,7.1E1,2.8E1,2.4E1,8.4E1,1.01E2,3.8E1,6.5E1,5.1E1,4E0,8.2E1],"tree_param":{"num_deleted":"0","num_feature":"44","num_nodes":"39","size_leaf_vector":"1"}},{"base_weights":[-1.6117905E-3,-6.5646924E-2,6.970339E-2,-1.3661115E-1,-3.918392E-2,4.4441655E-2,1.6046299E-1,-1.9046809E-1,-1.1151141E-1,-6.597455E-2,-1.15054045E-2,3.43626E-2,1.5680385E-1,1.377315E-1,3.1073716E-1,-1.0011981E-2,-3.6124014E-3,-1.1836326E-1,-2.7557505E-2,-7.2609924E-2,-2.625677E-3,-2.1806695E-2,4.8212554E-2,1.4990471E-2,5.7808533E-2,8.3504856E-2,2.2030258E-1,9.5392905E-2,1.6163597E-1,1.0905985E-2,2.0765057E-2,-6.5599415E-3,-4.1711163E-3,1.5718698E-4,-2.6373626E-3,-4.5499695E-3,-3.0632333E-3,-1.2116601E-3,2.0482233E-3,-2.088297E-3,-4.8117325E-4,1.0642441E-3,3.98585E-3,3.971055E-5,2.4424158E-3,1.8751493E-3,4.0770755E-3,9.3520334E-4,6.0257465E-3,5.115218E-3,1.2555498E-2,3.7780504E-3,5.7730107E-3,7.2191334E-3,1.0512627E-2],"categories":[],"categories_nodes":[],"categories_segments":[],"categories_sizes":[],"default_left":[0,0,0,0,0,0,0,0,0,0,0,0,0,0,0,0,0,0,0,0,0,0,0,0,0,0,0,0,0,0,0,0,0,0,0,0,0,0,0,0,0,0,0,0,0,0,0,0,0,0,0,0,0,0,0],"id":28,"left_children":[1,3,5,7,9,11,13,15,17,19,21,23,25,27,29,-1,-1,31,33,35,37,39,41,43,45,47,49,51,53,-1,-1,-1,-1,-1,-1,-1,-1,-1,-1,-1,-1,-1,-1,-1,-1,-1,-1,-1,-1,-1,-1,-1,-1,-1,-1],"loss_changes":[4.6717196E0,1.0068498E0,1.1025574E0,1.7612267E-1,2.9140168E-1,4.2496353E-1,3.1587672E-1,3.7516713E-2,5.541253E-2,8.387804E-2,1.210099E-1,1.5810263E-1,1.258899E-1,7.8704596E-2,3.5312533E-2,0E0,0E0,3.1212926E-2,7.126032E-3,3.218758E-2,1.98302E-2,4.0207125E-2,2.2905126E-2,9.272757E-2,7.308388E-2,3.6118403E-2,3.2473803E-2,5.602747E-3,1.8293262E-2,0E0,0E0,0E0,0E0,0E0,0E0,0E0,0E0,0E0,0E0,0E0,0E0,0E0,0E0,0E0,0E0,0E0,0E0,0E0,0E0,0E0,0E0,0E0,0E0,0E0,0E0],"parents":[2147483647,0,0,1,1,2,2,3,3,4,4,5,5,6,6,7,7,8,8,9,9,10,10,11,11,12,12,13,13,14,14,17,17,18,18,19,19,20,20,21,21,22,22,23,23,24,24,25,25,26,26,27,27,28,28],"right_children":[2,4,6,8,10,12,14,16,18,20,22,24,26,28,30,-1,-1,32,34,36,38,40,42,44,46,48,50,52,54,-1,-1,-1,-1,-1,-1,-1,-1,-1,-1,-1,-1,-1,-1,-1,-1,-1,-1,-1,-1,-1,-1,-1,-1,-1,-1],"split_conditions":[1.1084371E0,5.415E3,3.020986E-1,3.5033888E-1,8.644E3,1.5741718E0,8.707042E-1,4.332E3,1.8682083E-1,3.773E3,3.7132362E-1,-7.541944E-2,2.4217223E-1,1.738339E0,2.3040416E0,-1.0011981E-2,-3.6124014E-3,5.797139E-1,4.147E3,7.9870415E-1,7.941E3,9.690505E-1,1.3977473E0,1.3925909E0,1.2825525E0,1.0797E4,1.592837E0,1.2604254E0,1.5672839E0,1.0905985E-2,2.0765057E-2,-6.5599415E-3,-4.1711163E-3,1.5718698E-4,-2.6373626E-3,-4.5499695E-3,-3.0632333E-3,-1.2116601E-3,2.0482233E-3,-2.088297E-3,-4.8117325E-4,1.0642441E-3,3.98585E-3,3.971055E-5,2.4424158E-3,1.8751493E-3,4.0770755E-3,9.3520334E-4,6.0257465E-3,5.115218E-3,1.2555498E-2,3.7780504E-3,5.7730107E-3,7.2191334E-3,1.0512627E-2],"split_indices":[40,5,42,30,5,40,42,5,42,4,42,42,43,31,31,0,0,30,5,40,4,40,31,40,40,5,40,40,40,0,0,0,0,0,0,0,0,0,0,0,0,0,0,0,0,0,0,0,0,0,0,0,0,0,0],"split_type":[0,0,0,0,0,0,0,0,0,0,0,0,0,0,0,0,0,0,0,0,0,0,0,0,0,0,0,0,0,0,0,0,0,0,0,0,0,0,0,0,0,0,0,0,0,0,0,0,0,0,0,0,0,0,0],"sum_hessian":[1.021E3,5.38E2,4.83E2,1.45E2,3.93E2,3.79E2,1.04E2,4.4E1,1.01E2,1.99E2,1.94E2,3.49E2,3E1,9.2E1,1.2E1,4E1,4E0,9.3E1,8E0,1.8E2,1.9E1,1.66E2,2.8E1,1.92E2,1.57E2,1.5E1,1.5E1,3.5E1,5.7E1,8E0,4E0,6.6E1,2.7E1,4E0,4E0,6.6E1,1.14E2,1.3E1,6E0,6.2E1,1.04E2,1.6E1,1.2E1,1.36E2,5.6E1,8.6E1,7.1E1,6E0,9E0,4E0,1.1E1,2E1,1.5E1,4.5E1,1.2E1],"tree_param":{"num_deleted":"0","num_feature":"44","num_nodes":"55","size_leaf_vector":"1"}},{"base_weights":[1.3182164E-3,-6.352257E-2,7.0556745E-2,-1.3077961E-1,-3.6978845E-2,5.0460424E-2,1.711568E-1,-1.0527486E-2,-1.14801005E-1,-6.0545433E-2,-6.178276E-3,2.4818763E-2,8.244799E-2,3.470872E-1,1.4230211E-1,-1.3211487E-1,-8.419059E-2,-7.315856E-2,-3.5012342E-2,-1.7890582E-2,5.5648603E-2,1.7511994E-2,1.06578946E-1,4.8345953E-2,1.06629595E-1,7.6177674E-3,2.0053362E-2,1.1277057E-1,1.1014929E-2,-6.860359E-3,-2.9704159E-3,-4.4978517E-3,1.585558E-4,-4.1149566E-3,-2.4781176E-3,-2.2139738E-3,-2.927967E-4,-1.9514125E-3,-3.6777862E-4,5.4113637E-3,1.7736222E-3,1.2972196E-4,2.046149E-3,3.1846724E-3,7.357623E-3,1.8420097E-3,3.399358E-3,4.410549E-3,7.578881E-3,7.3388587E-3,3.1364837E-3],"categories":[],"categories_nodes":[],"categories_segments":[],"categories_sizes":[],"default_left":[0,0,0,0,0,0,0,0,0,0,0,0,0,0,0,0,0,0,0,0,0,0,0,0,0,0,0,0,0,0,0,0,0,0,0,0,0,0,0,0,0,0,0,0,0,0,0,0,0,0,0],"id":29,"left_children":[1,3,5,7,9,11,13,-1,15,17,19,21,23,25,27,29,31,33,35,37,39,41,43,45,47,-1,-1,49,-1,-1,-1,-1,-1,-1,-1,-1,-1,-1,-1,-1,-1,-1,-1,-1,-1,-1,-1,-1,-1,-1,-1],"loss_changes":[4.6510944E0,9.50274E-1,1.0042307E0,1.6829562E-1,2.7908367E-1,3.4162354E-1,3.7195134E-1,0E0,5.671513E-2,6.764591E-2,1.22650325E-1,1.3792585E-1,1.4822817E-1,5.452323E-2,1.4330173E-1,2.1468282E-2,2.4969816E-2,2.7195036E-2,1.9735217E-2,3.133427E-2,2.4803467E-2,7.53285E-2,2.368763E-2,1.5348315E-2,7.604039E-2,0E0,0E0,8.438736E-2,0E0,0E0,0E0,0E0,0E0,0E0,0E0,0E0,0E0,0E0,0E0,0E0,0E0,0E0,0E0,0E0,0E0,0E0,0E0,0E0,0E0,0E0,0E0],"parents":[2147483647,0,0,1,1,2,2,3,3,4,4,5,5,6,6,8,8,9,9,10,10,11,11,12,12,13,13,14,14,15,15,16,16,17,17,18,18,19,19,20,20,21,21,22,22,23,23,24,24,27,27],"right_children":[2,4,6,8,10,12,14,-1,16,18,20,22,24,26,28,30,32,34,36,38,40,42,44,46,48,-1,-1,50,-1,-1,-1,-1,-1,-1,-1,-1,-1,-1,-1,-1,-1,-1,-1,-1,-1,-1,-1,-1,-1,-1,-1],"split_conditions":[1.1084371E0,5.415E3,1.5244774E0,4.654023E-1,9.690505E-1,1.1374E4,2.3963486E2,-1.0527486E-2,-7.9561114E-2,8.539E3,3.325375E-1,3.842E3,1.2761791E0,2.3887915E2,4.530875E-1,1.89E3,8.929389E-1,1.707E3,2.259E3,-1.3993889E-1,9.0867126E-1,2.171E3,2.075463E0,1.229E3,3.434889E-1,7.6177674E-3,2.0053362E-2,3.8068074E-1,1.1014929E-2,-6.860359E-3,-2.9704159E-3,-4.4978517E-3,1.585558E-4,-4.1149566E-3,-2.4781176E-3,-2.2139738E-3,-2.927967E-4,-1.9514125E-3,-3.6777862E-4,5.4113637E-3,1.7736222E-3,1.2972196E-4,2.046149E-3,3.1846724E-3,7.357623E-3,1.8420097E-3,3.399358E-3,4.410549E-3,7.578881E-3,7.3388587E-3,3.1364837E-3],"split_indices":[40,5,40,40,40,5,1,0,43,5,43,3,40,1,43,3,25,4,3,43,28,4,39,4,43,0,0,29,0,0,0,0,0,0,0,0,0,0,0,0,0,0,0,0,0,0,0,0,0,0,0],"split_type":[0,0,0,0,0,0,0,0,0,0,0,0,0,0,0,0,0,0,0,0,0,0,0,0,0,0,0,0,0,0,0,0,0,0,0,0,0,0,0,0,0,0,0,0,0,0,0,0,0,0,0],"sum_hessian":[1.034E3,5.34E2,5E2,1.5E2,3.84E2,4.18E2,8.2E1,2.3E1,1.27E2,2.17E2,1.67E2,2.33E2,1.85E2,1E1,7.2E1,7.9E1,4.8E1,1.44E2,7.3E1,1.41E2,2.6E1,2.15E2,1.8E1,7.8E1,1.07E2,3E0,7E0,5.4E1,1.8E1,7.3E1,6E0,4.5E1,3E0,1.02E2,4.2E1,5.5E1,1.8E1,4.6E1,9.5E1,6E0,2E1,1.32E2,8.3E1,1E1,8E0,5.1E1,2.7E1,7.8E1,2.9E1,3.1E1,2.3E1],"tree_param":{"num_deleted":"0","num_feature":"44","num_nodes":"51","size_leaf_vector":"1"}},{"base_weights":[-2.7390337E-3,-7.105481E-2,6.894413E-2,-1.3973528E-1,-4.429001E-2,4.203039E-2,1.7184132E-1,-9.842848E-3,-1.1840664E-1,-6.725917E-2,-2.2928894E-2,2.2092361E-2,7.4253865E-2,1.3554753E-1,1.1743999E-2,-6.7766323E-3,-5.021012E-3,-3.980597E-3,-5.771495E-2,-3.449991E-2,-1.0658757E-2,8.50431E-3,3.550508E-2,6.159331E-2,8.895754E-2,5.8143344E-3,7.770321E-3,-3.0861306E-3,-2.2884698E-3,-1.8219681E-3,-8.3778903E-4,-1.000991E-3,-3.6128485E-4,1.2929103E-4,7.6993223E-4,1.1650816E-3,1.9620988E-3,2.585111E-3,3.3114124E-3,2.4368942E-3,4.5341393E-3],"categories":[],"categories_nodes":[],"categories_segments":[],"categories_sizes":[],"default_left":[0,0,0,0,0,0,0,0,0,0,0,0,0,0,0,0,0,0,0,0,0,0,0,0,0,0,0,0,0,0,0,0,0,0,0,0,0,0,0,0,0],"id":30,"left_children":[1,3,5,7,9,11,13,-1,15,17,19,21,23,25,-1,-1,-1,-1,27,29,31,33,35,37,39,-1,-1,-1,-1,-1,-1,-1,-1,-1,-1,-1,-1,-1,-1,-1,-1],"loss_changes":[5.0978723E0,9.73582E-1,1.399606E0,1.5822172E-1,1.8735689E-1,2.5791848E-1,2.0839334E-1,0E0,2.0581722E-2,1.7216206E-2,2.8169848E-2,4.5443475E-2,2.3188949E-2,8.320689E-3,0E0,0E0,0E0,0E0,2.3453236E-3,2.9340684E-3,3.0369135E-3,5.1014917E-3,4.8315823E-3,5.18471E-4,3.681183E-4,0E0,0E0,0E0,0E0,0E0,0E0,0E0,0E0,0E0,0E0,0E0,0E0,0E0,0E0,0E0,0E0],"parents":[2147483647,0,0,1,1,2,2,3,3,4,4,5,5,6,6,8,8,9,9,10,10,11,11,12,12,13,13,18,18,19,19,20,20,21,21,22,22,23,23,24,24],"right_children":[2,4,6,8,10,12,14,-1,16,18,20,22,24,26,-1,-1,-1,-1,28,30,32,34,36,38,40,-1,-1,-1,-1,-1,-1,-1,-1,-1,-1,-1,-1,-1,-1,-1,-1],"split_conditions":[4.585417E0,2.9727778E0,6.506528E0,1.5744444E0,3.7577777E0,5.5308332E0,7.98E0,-9.842848E-3,2.4368055E0,3.3302777E0,4.207778E0,4.9844446E0,6.024028E0,7.0702777E0,1.1743999E-2,-6.7766323E-3,-5.021012E-3,-3.980597E-3,1.0543591E0,2.4241396E2,2.4018694E2,2.4120229E2,2.4004901E2,5.713333E0,7.599528E-1,5.8143344E-3,7.770321E-3,-3.0861306E-3,-2.2884698E-3,-1.8219681E-3,-8.3778903E-4,-1.000991E-3,-3.6128485E-4,1.2929103E-4,7.6993223E-4,1.1650816E-3,1.9620988E-3,2.585111E-3,3.3114124E-3,2.4368942E-3,4.5341393E-3],"split_indices":[2,2,2,2,2,2,2,0,2,2,2,2,2,2,0,0,0,0,36,1,1,1,1,2,24,0,0,0,0,0,0,0,0,0,0,0,0,0,0,0,0],"split_type":[0,0,0,0,0,0,0,0,0,0,0,0,0,0,0,0,0,0,0,0,0,0,0,0,0,0,0,0,0,0,0,0,0,0,0,0,0,0,0,0,0],"sum_hessian":[1.039E3,5.32E2,5.07E2,1.48E2,3.84E2,4.03E2,1.04E2,3.8E1,1.1E2,1.84E2,2E2,2.5E2,1.53E2,6.8E1,3.6E1,5.3E1,5.7E1,7.7E1,1.07E2,1.02E2,9.8E1,1.25E2,1.25E2,8.5E1,6.8E1,3.8E1,3E1,7.7E1,3E1,9.1E1,1.1E1,2.5E1,7.3E1,6.8E1,5.7E1,3.1E1,9.4E1,3.1E1,5.4E1,4E0,6.4E1],"tree_param":{"num_deleted":"0","num_feature":"44","num_nodes":"41","size_leaf_vector":"1"}},{"base_weights":[3.6716604E-4,-5.1686913E-2,5.8993515E-2,-1.18900105E-1,-2.5680615E-2,3.8043346E-2,1.5450346E-1,-1.02722505E-2,-1.02919556E-1,-3.899103E-2,3.8735885E-2,2.7527042E-2,1.1194823E-1,1.3114735E-1,2.9149655E-1,-1.1987046E-1,-7.0758164E-2,-6.123716E-2,-2.0093776E-2,1.8822692E-3,8.128906E-2,1.1798218E-2,5.9421588E-2,8.041297E-2,1.0822239E-2,1.14275835E-1,1.8397178E-1,8.056149E-3,1.8080147E-2,-6.277583E-3,-3.2353166E-3,-3.9155083E-3,4.9255195E-4,-3.888592E-3,-2.1612302E-3,-1.6717475E-3,4.7578543E-4,-7.966873E-4,1.0268452E-3,2.9003122E-3,6.717223E-3,-3.5354702E-4,1.9509428E-3,1.8892091E-3,3.9673694E-3,2.488816E-3,5.1608384E-3,3.8222347E-3,6.6113034E-3,4.1234507E-3,9.991587E-3],"categories":[],"categories_nodes":[],"categories_segments":[],"categories_sizes":[],"default_left":[0,0,0,0,0,0,0,0,0,0,0,0,0,0,0,0,0,0,0,0,0,0,0,0,0,0,0,0,0,0,0,0,0,0,0,0,0,0,0,0,0,0,0,0,0,0,0,0,0,0,0],"id":31,"left_children":[1,3,5,7,9,11,13,-1,15,17,19,21,23,25,27,29,31,33,35,37,39,41,43,45,-1,47,49,-1,-1,-1,-1,-1,-1,-1,-1,-1,-1,-1,-1,-1,-1,-1,-1,-1,-1,-1,-1,-1,-1,-1,-1],"loss_changes":[3.1860144E0,9.63572E-1,9.765885E-1,1.9184327E-1,3.4447455E-1,3.109097E-1,2.4333811E-1,0E0,6.34799E-2,1.3833922E-1,1.0805544E-1,1.7738953E-1,1.4736134E-1,4.7601104E-2,5.141771E-2,1.8514872E-2,2.9991925E-2,4.19088E-2,7.1817726E-2,1.2956576E-2,3.1736106E-2,1.2303359E-1,4.7445625E-2,2.2807509E-2,0E0,3.1315744E-2,1.0887146E-2,0E0,0E0,0E0,0E0,0E0,0E0,0E0,0E0,0E0,0E0,0E0,0E0,0E0,0E0,0E0,0E0,0E0,0E0,0E0,0E0,0E0,0E0,0E0,0E0],"parents":[2147483647,0,0,1,1,2,2,3,3,4,4,5,5,6,6,8,8,9,9,10,10,11,11,12,12,13,13,14,14,15,15,16,16,17,17,18,18,19,19,20,20,21,21,22,22,23,23,25,25,26,26],"right_children":[2,4,6,8,10,12,14,-1,16,18,20,22,24,26,28,30,32,34,36,38,40,42,44,46,-1,48,50,-1,-1,-1,-1,-1,-1,-1,-1,-1,-1,-1,-1,-1,-1,-1,-1,-1,-1,-1,-1,-1,-1,-1,-1],"split_conditions":[1.1295965E0,5.415E3,3.7132362E-1,2.2299722E-1,3.2280913E-1,3.1959078E-1,2.4171083E0,-1.02722505E-2,-7.9561114E-2,8.8104725E-1,8.0268055E-1,1.1474E4,1.516628E0,7.2797185E-1,1.1269014E0,1.073E3,3.7600917E-1,9.340833E-2,-2.89625E-2,4.2779446E-1,3.5672936E-1,9.32E2,1.3448967E0,1.3666102E0,1.0822239E-2,1.055007E0,1.2522999E0,8.056149E-3,1.8080147E-2,-6.277583E-3,-3.2353166E-3,-3.9155083E-3,4.9255195E-4,-3.888592E-3,-2.1612302E-3,-1.6717475E-3,4.7578543E-4,-7.966873E-4,1.0268452E-3,2.9003122E-3,6.717223E-3,-3.5354702E-4,1.9509428E-3,1.8892091E-3,3.9673694E-3,2.488816E-3,5.1608384E-3,3.8222347E-3,6.6113034E-3,4.1234507E-3,9.991587E-3],"split_indices":[28,5,42,30,42,43,35,0,43,22,22,5,28,42,22,3,29,42,42,42,37,4,28,22,0,22,32,0,0,0,0,0,0,0,0,0,0,0,0,0,0,0,0,0,0,0,0,0,0,0,0],"split_type":[0,0,0,0,0,0,0,0,0,0,0,0,0,0,0,0,0,0,0,0,0,0,0,0,0,0,0,0,0,0,0,0,0,0,0,0,0,0,0,0,0,0,0,0,0,0,0,0,0,0,0],"sum_hessian":[1.042E3,5.52E2,4.9E2,1.53E2,3.99E2,4.03E2,8.7E1,2.2E1,1.31E2,3.31E2,6.8E1,3.54E2,4.9E1,7.6E1,1.1E1,8.4E1,4.7E1,1.51E2,1.8E2,3.7E1,3.1E1,2.38E2,1.16E2,3.9E1,1E1,6E1,1.6E1,5E0,6E0,7.5E1,9E0,4.3E1,4E0,7.7E1,7.4E1,1.24E2,5.6E1,1.9E1,1.8E1,2.3E1,8E0,1.41E2,9.7E1,5.7E1,5.9E1,1.8E1,2.1E1,2.1E1,3.9E1,3E0,1.3E1],"tree_param":{"num_deleted":"0","num_feature":"44","num_nodes":"51","size_leaf_vector":"1"}},{"base_weights":[1.6601224E-3,-5.5320658E-2,7.707211E-2,-1.1428583E-1,-2.9042209E-2,5.0814684E-2,1.9525176E-1,-1.5041436E-1,-8.880741E-2,-4.950571E-2,-6.864448E-3,3.0685952E-2,8.3795756E-2,1.7344719E-1,1.8490596E-2,-9.74054E-3,-6.6729053E-3,-5.2412967E-3,-4.0651257E-3,-5.88866E-2,-3.743129E-2,-1.630277E-2,1.6415933E-3,1.9858768E-2,4.051904E-2,3.4199797E-3,1.00794435E-1,7.179136E-3,1.0264779E-2,-3.0519408E-3,-2.1829186E-3,-1.9976904E-3,-1.498417E-3,-5.0829124E-4,-1.0688613E-3,-1.688629E-4,4.2811185E-4,7.4168766E-4,1.6092971E-3,1.7097272E-3,2.323603E-3,2.349703E-3,5.1350608E-3],"categories":[],"categories_nodes":[],"categories_segments":[],"categories_sizes":[],"default_left":[0,0,0,0,0,0,0,0,0,0,0,0,0,0,0,0,0,0,0,0,0,0,0,0,0,0,0,0,0,0,0,0,0,0,0,0,0,0,0,0,0,0,0],"id":32,"left_children":[1,3,5,7,9,11,13,15,17,19,21,23,25,27,-1,-1,-1,-1,-1,29,31,33,35,37,39,-1,41,-1,-1,-1,-1,-1,-1,-1,-1,-1,-1,-1,-1,-1,-1,-1,-1],"loss_changes":[4.41302E0,9.0314615E-1,1.3616455E0,1.5233159E-1,1.8391702E-1,2.3841244E-1,2.4035382E-1,2.8955102E-2,4.460871E-3,2.1695495E-2,1.5762184E-2,2.3362815E-2,2.8960586E-2,3.9955854E-2,0E0,0E0,0E0,0E0,0E0,1.169771E-3,5.9106946E-4,2.678858E-3,3.6412196E-3,6.336432E-3,2.8535873E-3,0E0,1.6366243E-3,0E0,0E0,0E0,0E0,0E0,0E0,0E0,0E0,0E0,0E0,0E0,0E0,0E0,0E0,0E0,0E0],"parents":[2147483647,0,0,1,1,2,2,3,3,4,4,5,5,6,6,7,7,8,8,9,9,10,10,11,11,12,12,13,13,19,19,20,20,21,21,22,22,23,23,24,24,26,26],"right_children":[2,4,6,8,10,12,14,16,18,20,22,24,26,28,-1,-1,-1,-1,-1,30,32,34,36,38,40,-1,42,-1,-1,-1,-1,-1,-1,-1,-1,-1,-1,-1,-1,-1,-1,-1,-1],"split_conditions":[4.8058333E0,3.218611E0,7.0702777E0,2.3279166E0,4.0519443E0,5.7693057E0,1.0121528E1,1.1706945E0,2.6583333E0,3.65E0,4.4503126E0,5.1655555E0,6.2775E0,8.045555E0,1.8490596E-2,-9.74054E-3,-6.6729053E-3,-5.2412967E-3,-4.0651257E-3,2.417973E2,3.961111E0,1.1044228E-1,2.413197E2,2.4252287E2,5.413611E0,3.4199797E-3,2.3707639E2,7.179136E-3,1.0264779E-2,-3.0519408E-3,-2.1829186E-3,-1.9976904E-3,-1.498417E-3,-5.0829124E-4,-1.0688613E-3,-1.688629E-4,4.2811185E-4,7.4168766E-4,1.6092971E-3,1.7097272E-3,2.323603E-3,2.349703E-3,5.1350608E-3],"split_indices":[2,2,2,2,2,2,2,2,2,2,2,2,2,2,0,0,0,0,0,1,2,0,1,1,2,0,1,0,0,0,0,0,0,0,0,0,0,0,0,0,0,0,0],"split_type":[0,0,0,0,0,0,0,0,0,0,0,0,0,0,0,0,0,0,0,0,0,0,0,0,0,0,0,0,0,0,0,0,0,0,0,0,0,0,0,0,0,0,0],"sum_hessian":[1.025E3,5.84E2,4.41E2,1.79E2,4.05E2,3.62E2,7.9E1,7.2E1,1.07E2,2.1E2,1.95E2,2.26E2,1.36E2,7.2E1,7E0,1.7E1,5.5E1,3E1,7.7E1,1.16E2,9.4E1,9.2E1,1.03E2,1.09E2,1.17E2,7.4E1,6.2E1,4E1,3.2E1,9.9E1,1.7E1,6.7E1,2.7E1,4.3E1,4.9E1,6E1,4.3E1,7.9E1,3E1,6E1,5.7E1,3E0,5.9E1],"tree_param":{"num_deleted":"0","num_feature":"44","num_nodes":"43","size_leaf_vector":"1"}},{"base_weights":[3.8282585E-4,-5.038869E-2,7.444861E-2,-1.1124416E-1,-2.5435466E-2,5.0184045E-2,1.7235376E-1,-1.466085E-1,-8.686363E-2,-4.713764E-2,-5.859543E-3,3.0748997E-2,7.515193E-2,1.4032815E-1,1.1919914E-2,-9.470339E-3,-6.6011436E-3,-5.0002113E-3,-3.9506713E-3,-2.8137988E-3,-3.6212835E-2,-1.8564126E-2,2.1215123E-3,2.2993313E-2,4.2488173E-2,3.162098E-3,4.4785165E-3,5.7240543E-3,7.683076E-3,-1.8455604E-3,-5.2866194E-4,-1.334366E-3,-8.0072175E-4,3.4134687E-4,-1.6940547E-4,6.9052866E-4,1.3565383E-3,1.2809181E-3,2.2185952E-3],"categories":[],"categories_nodes":[],"categories_segments":[],"categories_sizes":[],"default_left":[0,0,0,0,0,0,0,0,0,0,0,0,0,0,0,0,0,0,0,0,0,0,0,0,0,0,0,0,0,0,0,0,0,0,0,0,0,0,0],"id":33,"left_children":[1,3,5,7,9,11,13,15,17,19,21,23,25,27,-1,-1,-1,-1,-1,-1,29,31,33,35,37,-1,-1,-1,-1,-1,-1,-1,-1,-1,-1,-1,-1,-1,-1],"loss_changes":[3.9296424E0,9.386654E-1,1.0009916E0,1.424613E-1,1.8707827E-1,1.6364533E-1,1.4421582E-1,1.9939303E-2,3.34239E-3,1.8827468E-2,2.3664646E-2,1.6685858E-2,1.9922018E-2,2.7416945E-3,0E0,0E0,0E0,0E0,0E0,0E0,1.3645291E-3,1.4366638E-3,3.7563466E-3,4.146494E-3,1.2784004E-3,0E0,0E0,0E0,0E0,0E0,0E0,0E0,0E0,0E0,0E0,0E0,0E0,0E0,0E0],"parents":[2147483647,0,0,1,1,2,2,3,3,4,4,5,5,6,6,7,7,8,8,9,9,10,10,11,11,12,12,13,13,20,20,21,21,22,22,23,23,24,24],"right_children":[2,4,6,8,10,12,14,16,18,20,22,24,26,28,-1,-1,-1,-1,-1,-1,30,32,34,36,38,-1,-1,-1,-1,-1,-1,-1,-1,-1,-1,-1,-1,-1,-1],"split_conditions":[4.879028E0,3.218611E0,6.935E0,2.2255557E0,4.024722E0,5.713333E0,8.649479E0,1.0788889E0,2.6183333E0,3.6294444E0,4.4016666E0,5.3406944E0,6.2197223E0,7.4075E0,1.1919914E-2,-9.470339E-3,-6.6011436E-3,-5.0002113E-3,-3.9506713E-3,-2.8137988E-3,1.5165681E0,-7.9877937E-1,8.12E2,-2.344914E-1,1.0363383E0,3.162098E-3,4.4785165E-3,5.7240543E-3,7.683076E-3,-1.8455604E-3,-5.2866194E-4,-1.334366E-3,-8.0072175E-4,3.4134687E-4,-1.6940547E-4,6.9052866E-4,1.3565383E-3,1.2809181E-3,2.2185952E-3],"split_indices":[2,2,2,2,2,2,2,2,2,2,2,2,2,2,0,0,0,0,0,0,25,21,4,21,36,0,0,0,0,0,0,0,0,0,0,0,0,0,0],"split_type":[0,0,0,0,0,0,0,0,0,0,0,0,0,0,0,0,0,0,0,0,0,0,0,0,0,0,0,0,0,0,0,0,0,0,0,0,0,0,0],"sum_hessian":[1.043E3,6.19E2,4.24E2,1.79E2,4.4E2,3.41E2,8.3E1,7.1E1,1.08E2,2.08E2,2.32E2,1.93E2,1.48E2,5.8E1,2.5E1,1.5E1,5.6E1,3.6E1,7.2E1,1.11E2,9.7E1,8.9E1,1.43E2,1.18E2,7.5E1,8.4E1,6.4E1,2.3E1,3.5E1,9.4E1,3E0,1.9E1,7E1,7.7E1,6.6E1,3.8E1,8E1,9E0,6.6E1],"tree_param":{"num_deleted":"0","num_feature":"44","num_nodes":"39","size_leaf_vector":"1"}},{"base_weights":[-8.168267E-4,-5.4145373E-2,6.806767E-2,-1.17796004E-1,-3.1539083E-2,4.901593E-2,1.8399368E-1,-8.047065E-3,-1.0017955E-1,-5.262049E-2,-1.189752E-2,2.9013976E-2,8.122568E-2,1.6251995E-1,1.8224325E-2,-5.7922825E-3,-4.330994E-3,-6.269672E-2,-4.1544244E-2,-2.2879729E-2,-1.0028497E-3,1.7664094E-2,4.0405475E-2,6.804784E-2,4.9416083E-3,6.6705258E-3,9.225438E-3,-3.2093027E-3,-1.9591132E-3,-1.8656178E-3,-2.4695154E-3,-1.4163079E-3,-8.798307E-4,1.8301366E-4,-3.679245E-4,6.794647E-4,1.4025322E-3,1.6108932E-3,2.2585168E-3,1.7430474E-3,3.459972E-3],"categories":[],"categories_nodes":[],"categories_segments":[],"categories_sizes":[],"default_left":[0,0,0,0,0,0,0,0,0,0,0,0,0,0,0,0,0,0,0,0,0,0,0,0,0,0,0,0,0,0,0,0,0,0,0,0,0,0,0,0,0],"id":34,"left_children":[1,3,5,7,9,11,13,-1,15,17,19,21,23,25,-1,-1,-1,27,29,31,33,35,37,39,-1,-1,-1,-1,-1,-1,-1,-1,-1,-1,-1,-1,-1,-1,-1,-1,-1],"loss_changes":[3.83883E0,8.4379935E-1,9.980993E-1,1.0092759E-1,1.7990926E-1,2.5083673E-1,1.8881822E-1,0E0,1.3757229E-2,2.0832717E-2,2.7137049E-2,3.0833572E-2,2.8077066E-2,1.3149381E-2,0E0,0E0,0E0,1.2672842E-3,1.5770942E-3,2.7530268E-3,3.4352043E-3,4.866872E-3,3.2652617E-3,9.890497E-4,0E0,0E0,0E0,0E0,0E0,0E0,0E0,0E0,0E0,0E0,0E0,0E0,0E0,0E0,0E0,0E0,0E0],"parents":[2147483647,0,0,1,1,2,2,3,3,4,4,5,5,6,6,8,8,9,9,10,10,11,11,12,12,13,13,17,17,18,18,19,19,20,20,21,21,22,22,23,23],"right_children":[2,4,6,8,10,12,14,-1,16,18,20,22,24,26,-1,-1,-1,28,30,32,34,36,38,40,-1,-1,-1,-1,-1,-1,-1,-1,-1,-1,-1,-1,-1,-1,-1,-1,-1],"split_conditions":[4.7619443E0,2.9727778E0,7.337917E0,1.5744444E0,3.872639E0,5.8570833E0,1.0121528E1,-8.047065E-3,2.3689656E0,3.452361E0,4.386528E0,5.18375E0,6.453472E0,8.045555E0,1.8224325E-2,-5.7922825E-3,-4.330994E-3,4.520722E-1,1.3860834E-1,4.1186113E0,8.12E2,2.4252287E2,5.413611E0,1.4134847E0,4.9416083E-3,6.6705258E-3,9.225438E-3,-3.2093027E-3,-1.9591132E-3,-1.8656178E-3,-2.4695154E-3,-1.4163079E-3,-8.798307E-4,1.8301366E-4,-3.679245E-4,6.794647E-4,1.4025322E-3,1.6108932E-3,2.2585168E-3,1.7430474E-3,3.459972E-3],"split_indices":[2,2,2,2,2,2,2,0,2,2,2,2,2,2,0,0,0,21,0,2,4,1,2,31,0,0,0,0,0,0,0,0,0,0,0,0,0,0,0,0,0],"split_type":[0,0,0,0,0,0,0,0,0,0,0,0,0,0,0,0,0,0,0,0,0,0,0,0,0,0,0,0,0,0,0,0,0,0,0,0,0,0,0,0,0],"sum_hessian":[1.043E3,5.88E2,4.55E2,1.53E2,4.35E2,3.92E2,6.3E1,4.2E1,1.11E2,2.09E2,2.26E2,2.43E2,1.49E2,5.8E1,5E0,4.8E1,6.3E1,1.07E2,1.02E2,1.12E2,1.14E2,1.23E2,1.2E2,8.8E1,6.1E1,2.8E1,3E1,9.9E1,8E0,7E1,3.2E1,5.3E1,5.9E1,6.6E1,4.8E1,9E1,3.3E1,4.7E1,7.3E1,4E0,8.4E1],"tree_param":{"num_deleted":"0","num_feature":"44","num_nodes":"41","size_leaf_vector":"1"}},{"base_weights":[-3.5263074E-4,-5.9335988E-2,3.8361453E-2,-1.16520695E-1,-4.269392E-2,1.7677242E-2,8.64624E-2,-8.657921E-3,-1.0008287E-1,-5.4952014E-2,-1.2242397E-2,1.4181911E-3,5.327687E-2,5.5163614E-2,1.3230209E-1,-5.727061E-3,-7.540006E-2,-7.206505E-2,-4.323668E-2,-2.0798441E-2,1.581802E-2,-1.451862E-2,1.481552E-2,3.4174845E-2,7.808161E-2,4.01329E-2,1.0377959E-1,1.0664832E-1,1.9275497E-1,-3.9630407E-3,-1.4762387E-3,-3.8819425E-3,-2.2108979E-3,-2.5854183E-3,-1.8012386E-3,-1.7232284E-3,-1.3874662E-4,-1.8121899E-4,1.4287796E-3,-2.3783601E-3,-3.383967E-4,-4.0431507E-4,1.0847674E-3,1.1822664E-3,3.8065636E-3,3.4307656E-3,5.5508856E-3,1.0247093E-3,3.1278392E-3,3.7505159E-3,7.6491833E-3,4.220178E-3,6.9100596E-3,6.718871E-3,1.1141673E-2],"categories":[],"categories_nodes":[],"categories_segments":[],"categories_sizes":[],"default_left":[0,0,0,0,0,0,0,0,0,0,0,0,0,0,0,0,0,0,0,0,0,0,0,0,0,0,0,0,0,0,0,0,0,0,0,0,0,0,0,0,0,0,0,0,0,0,0,0,0,0,0,0,0,0,0],"id":35,"left_children":[1,3,5,7,9,11,13,-1,15,17,19,21,23,25,27,-1,29,31,33,35,37,39,41,43,45,47,49,51,53,-1,-1,-1,-1,-1,-1,-1,-1,-1,-1,-1,-1,-1,-1,-1,-1,-1,-1,-1,-1,-1,-1,-1,-1,-1,-1],"loss_changes":[2.4433231E0,3.9853418E-1,6.411963E-1,7.111502E-2,1.22508824E-1,2.6212817E-1,2.710389E-1,0E0,1.8485904E-2,4.399818E-2,2.3377258E-2,6.683044E-2,6.461412E-2,8.133072E-2,1.0040891E-1,0E0,3.150344E-3,1.1157095E-2,6.8129897E-3,1.8131424E-2,5.808438E-3,3.630741E-2,2.6960738E-2,3.4425877E-2,1.1401236E-2,3.8792178E-2,2.6744932E-2,2.8342783E-2,8.6862445E-3,0E0,0E0,0E0,0E0,0E0,0E0,0E0,0E0,0E0,0E0,0E0,0E0,0E0,0E0,0E0,0E0,0E0,0E0,0E0,0E0,0E0,0E0,0E0,0E0,0E0,0E0],"parents":[2147483647,0,0,1,1,2,2,3,3,4,4,5,5,6,6,8,8,9,9,10,10,11,11,12,12,13,13,14,14,16,16,17,17,18,18,19,19,20,20,21,21,22,22,23,23,24,24,25,25,26,26,27,27,28,28],"right_children":[2,4,6,8,10,12,14,-1,16,18,20,22,24,26,28,-1,30,32,34,36,38,40,42,44,46,48,50,52,54,-1,-1,-1,-1,-1,-1,-1,-1,-1,-1,-1,-1,-1,-1,-1,-1,-1,-1,-1,-1,-1,-1,-1,-1,-1,-1],"split_conditions":[1.0106583E0,6.93347E-1,1.3838624E0,1.905E3,1.4136945E-1,1.6594167E-1,1.2453097E-1,-8.657921E-3,4.74E2,6.508E3,3.799E3,1.1687015E0,1.0401167E0,6E0,1.592837E0,-5.727061E-3,3.6139724E-1,6.8092775E-1,-7.1592934E-2,7.1920836E-1,1.029E3,-2.869264E-1,-3.6392143E-1,5.292139E-1,6.530139E-1,1.1581E4,1.5741718E0,3.2385138E-1,2.2312486E0,-3.9630407E-3,-1.4762387E-3,-3.8819425E-3,-2.2108979E-3,-2.5854183E-3,-1.8012386E-3,-1.7232284E-3,-1.3874662E-4,-1.8121899E-4,1.4287796E-3,-2.3783601E-3,-3.383967E-4,-4.0431507E-4,1.0847674E-3,1.1822664E-3,3.8065636E-3,3.4307656E-3,5.5508856E-3,1.0247093E-3,3.1278392E-3,3.7505159E-3,7.6491833E-3,4.220178E-3,6.9100596E-3,6.718871E-3,1.1141673E-2],"split_indices":[40,40,40,5,42,42,42,0,3,5,4,40,22,6,40,0,43,30,42,22,3,43,42,42,43,5,40,43,35,0,0,0,0,0,0,0,0,0,0,0,0,0,0,0,0,0,0,0,0,0,0,0,0,0,0],"split_type":[0,0,0,0,0,0,0,0,0,0,0,0,0,0,0,0,0,0,0,0,0,0,0,0,0,0,0,0,0,0,0,0,0,0,0,0,0,0,0,0,0,0,0,0,0,0,0,0,0,0,0,0,0,0,0],"sum_hessian":[1.068E3,4.23E2,6.45E2,9.4E1,3.29E2,4.52E2,1.93E2,1.9E1,7.5E1,2.34E2,9.5E1,3.11E2,1.41E2,1.16E2,7.7E1,4.5E1,3E1,9.3E1,1.41E2,7.3E1,2.2E1,1.42E2,1.69E2,8.1E1,6E1,9E1,2.6E1,5.6E1,2.1E1,2.7E1,3E0,7.6E1,1.7E1,6.2E1,7.9E1,4.1E1,3.2E1,9E0,1.3E1,2.6E1,1.16E2,3.9E1,1.3E2,6.6E1,1.5E1,4.9E1,1.1E1,4.9E1,4.1E1,1.8E1,8E0,3.5E1,2.1E1,9E0,1.2E1],"tree_param":{"num_deleted":"0","num_feature":"44","num_nodes":"55","size_leaf_vector":"1"}},{"base_weights":[1.0055689E-4,-4.668065E-2,6.297257E-2,-9.797231E-2,-2.6199142E-2,4.1653372E-2,1.4293025E-1,-1.4058645E-1,-8.265183E-2,-4.23364E-2,-7.821845E-3,2.5120767E-2,6.462578E-2,1.2721984E-1,1.2951686E-2,-8.263109E-3,-5.992149E-3,-4.7552516E-3,-3.4750912E-3,-5.048221E-2,-3.0864613E-2,-1.6514318E-2,-6.387136E-4,1.7555913E-2,3.4139328E-2,5.641413E-2,7.666904E-2,5.087204E-3,7.2284206E-3,-2.6243145E-3,-1.7036773E-3,-1.6051546E-3,-7.6628296E-4,-1.104514E-3,-5.471452E-4,-2.3773545E-4,4.3507954E-4,6.5624743E-4,1.394996E-3,9.68421E-4,1.805643E-3,2.5610744E-3,3.1915535E-3,1.703836E-3,3.9218483E-3],"categories":[],"categories_nodes":[],"categories_segments":[],"categories_sizes":[],"default_left":[0,0,0,0,0,0,0,0,0,0,0,0,0,0,0,0,0,0,0,0,0,0,0,0,0,0,0,0,0,0,0,0,0,0,0,0,0,0,0,0,0,0,0,0,0],"id":36,"left_children":[1,3,5,7,9,11,13,15,17,19,21,23,25,27,-1,-1,-1,-1,-1,29,31,33,35,37,39,41,43,-1,-1,-1,-1,-1,-1,-1,-1,-1,-1,-1,-1,-1,-1,-1,-1,-1,-1],"loss_changes":[3.0265226E0,6.1724615E-1,7.423804E-1,9.806228E-2,1.251134E-1,1.3054478E-1,1.3485706E-1,2.2045374E-3,1.4023662E-2,1.9467473E-2,1.24148475E-2,1.331836E-2,1.0014594E-2,2.1974444E-2,0E0,0E0,0E0,0E0,0E0,2.4865866E-3,1.3554841E-3,2.5542062E-3,4.2702854E-3,4.8130453E-3,1.9824356E-3,1.9669533E-4,1.5439391E-3,0E0,0E0,0E0,0E0,0E0,0E0,0E0,0E0,0E0,0E0,0E0,0E0,0E0,0E0,0E0,0E0,0E0,0E0],"parents":[2147483647,0,0,1,1,2,2,3,3,4,4,5,5,6,6,7,7,8,8,9,9,10,10,11,11,12,12,13,13,19,19,20,20,21,21,22,22,23,23,24,24,25,25,26,26],"right_children":[2,4,6,8,10,12,14,16,18,20,22,24,26,28,-1,-1,-1,-1,-1,30,32,34,36,38,40,42,44,-1,-1,-1,-1,-1,-1,-1,-1,-1,-1,-1,-1,-1,-1,-1,-1,-1,-1],"split_conditions":[4.8058333E0,3.0870833E0,6.919028E0,1.6009722E0,4.024722E0,5.713333E0,9.578889E0,3.5873076E-1,2.5607789E0,3.6294444E0,4.413472E0,5.18375E0,6.2775E0,7.593472E0,1.2951686E-2,-8.263109E-3,-5.992149E-3,-4.7552516E-3,-3.4750912E-3,2.4199483E2,1.3767889E0,9.139E3,2.4150047E2,2.422148E2,1.0284824E0,2.416303E2,2.3494373E2,5.087204E-3,7.2284206E-3,-2.6243145E-3,-1.7036773E-3,-1.6051546E-3,-7.6628296E-4,-1.104514E-3,-5.471452E-4,-2.3773545E-4,4.3507954E-4,6.5624743E-4,1.394996E-3,9.68421E-4,1.805643E-3,2.5610744E-3,3.1915535E-3,1.703836E-3,3.9218483E-3],"split_indices":[2,2,2,2,2,2,2,28,2,2,2,2,2,2,0,0,0,0,0,1,25,5,1,1,36,1,1,0,0,0,0,0,0,0,0,0,0,0,0,0,0,0,0,0,0],"split_type":[0,0,0,0,0,0,0,0,0,0,0,0,0,0,0,0,0,0,0,0,0,0,0,0,0,0,0,0,0,0,0,0,0,0,0,0,0,0,0,0,0,0,0,0,0],"sum_hessian":[1.027E3,5.89E2,4.38E2,1.67E2,4.22E2,3.47E2,9.1E1,4.2E1,1.25E2,2.24E2,1.98E2,2.03E2,1.44E2,8.2E1,9E0,1.6E1,2.6E1,6.1E1,6.4E1,1.29E2,9.5E1,8.9E1,1.09E2,1.12E2,9.1E1,